digraph Tree {
node [shape=box] ;
0 [label="X[700] <= 0.5\ngini = 0.5\nsamples = 800000\nvalue = [400078, 399922]"] ;
1 [label="X[337] <= 0.5\ngini = 0.496\nsamples = 38576\nvalue = [20991, 17585]"] ;
0 -> 1 [labeldistance=2.5, labelangle=45, headlabel="True"] ;
2 [label="X[544] <= 0.5\ngini = 0.493\nsamples = 34509\nvalue = [19264, 15245]"] ;
1 -> 2 ;
3 [label="X[105] <= 0.5\ngini = 0.49\nsamples = 30708\nvalue = [17574, 13134]"] ;
2 -> 3 ;
4 [label="X[203] <= 0.5\ngini = 0.491\nsamples = 28870\nvalue = [16345, 12525]"] ;
3 -> 4 ;
5 [label="X[539] <= 0.5\ngini = 0.493\nsamples = 27213\nvalue = [15230, 11983]"] ;
4 -> 5 ;
6 [label="X[141] <= 0.5\ngini = 0.494\nsamples = 25078\nvalue = [13913, 11165]"] ;
5 -> 6 ;
7 [label="X[219] <= 0.5\ngini = 0.494\nsamples = 24759\nvalue = [13690, 11069]"] ;
6 -> 7 ;
8 [label="X[14] <= 0.5\ngini = 0.495\nsamples = 24661\nvalue = [13614, 11047]"] ;
7 -> 8 ;
9 [label="X[272] <= 0.5\ngini = 0.495\nsamples = 24532\nvalue = [13518, 11014]"] ;
8 -> 9 ;
10 [label="X[30] <= 0.5\ngini = 0.495\nsamples = 24302\nvalue = [13423, 10879]"] ;
9 -> 10 ;
11 [label="X[144] <= 0.5\ngini = 0.494\nsamples = 23157\nvalue = [12860, 10297]"] ;
10 -> 11 ;
12 [label="X[143] <= 0.5\ngini = 0.493\nsamples = 22188\nvalue = [12387, 9801]"] ;
11 -> 12 ;
13 [label="X[333] <= 0.5\ngini = 0.493\nsamples = 21719\nvalue = [12169, 9550]"] ;
12 -> 13 ;
14 [label="X[652] <= 0.5\ngini = 0.493\nsamples = 21656\nvalue = [12120, 9536]"] ;
13 -> 14 ;
15 [label="X[400] <= 0.5\ngini = 0.492\nsamples = 20626\nvalue = [11597, 9029]"] ;
14 -> 15 ;
16 [label="X[307] <= 0.5\ngini = 0.492\nsamples = 20574\nvalue = [11580, 8994]"] ;
15 -> 16 ;
17 [label="X[699] <= 0.5\ngini = 0.492\nsamples = 19996\nvalue = [11293, 8703]"] ;
16 -> 17 ;
18 [label="X[649] <= 0.5\ngini = 0.492\nsamples = 19988\nvalue = [11293, 8695]"] ;
17 -> 18 ;
19 [label="X[484] <= 0.5\ngini = 0.491\nsamples = 19438\nvalue = [11019, 8419]"] ;
18 -> 19 ;
20 [label="X[38] <= 0.5\ngini = 0.491\nsamples = 19424\nvalue = [11017, 8407]"] ;
19 -> 20 ;
21 [label="X[524] <= 0.5\ngini = 0.491\nsamples = 19382\nvalue = [11003, 8379]"] ;
20 -> 21 ;
22 [label="X[395] <= 0.5\ngini = 0.491\nsamples = 19258\nvalue = [10916, 8342]"] ;
21 -> 22 ;
23 [label="X[606] <= 0.5\ngini = 0.491\nsamples = 19248\nvalue = [10915, 8333]"] ;
22 -> 23 ;
24 [label="X[610] <= 0.5\ngini = 0.491\nsamples = 19053\nvalue = [10784, 8269]"] ;
23 -> 24 ;
25 [label="X[431] <= 0.5\ngini = 0.492\nsamples = 18482\nvalue = [10426, 8056]"] ;
24 -> 25 ;
26 [label="X[696] <= 0.5\ngini = 0.492\nsamples = 18301\nvalue = [10304, 7997]"] ;
25 -> 26 ;
27 [label="X[279] <= 0.5\ngini = 0.492\nsamples = 18295\nvalue = [10304, 7991]"] ;
26 -> 27 ;
28 [label="X[174] <= 0.5\ngini = 0.492\nsamples = 18282\nvalue = [10292, 7990]"] ;
27 -> 28 ;
29 [label="X[327] <= 0.5\ngini = 0.492\nsamples = 18271\nvalue = [10290, 7981]"] ;
28 -> 29 ;
30 [label="X[271] <= 0.5\ngini = 0.492\nsamples = 18266\nvalue = [10290, 7976]"] ;
29 -> 30 ;
31 [label="X[169] <= 0.5\ngini = 0.492\nsamples = 17818\nvalue = [10064, 7754]"] ;
30 -> 31 ;
32 [label="X[84] <= 0.5\ngini = 0.491\nsamples = 16287\nvalue = [9247, 7040]"] ;
31 -> 32 ;
33 [label="X[441] <= 0.5\ngini = 0.491\nsamples = 16271\nvalue = [9243, 7028]"] ;
32 -> 33 ;
34 [label="X[159] <= 0.5\ngini = 0.491\nsamples = 16266\nvalue = [9243, 7023]"] ;
33 -> 34 ;
35 [label="X[284] <= 0.5\ngini = 0.491\nsamples = 16234\nvalue = [9232, 7002]"] ;
34 -> 35 ;
36 [label="X[565] <= 0.5\ngini = 0.491\nsamples = 16226\nvalue = [9231, 6995]"] ;
35 -> 36 ;
37 [label="X[15] <= 0.5\ngini = 0.49\nsamples = 16171\nvalue = [9209, 6962]"] ;
36 -> 37 ;
38 [label="X[313] <= 0.5\ngini = 0.49\nsamples = 15289\nvalue = [8742, 6547]"] ;
37 -> 38 ;
39 [label="X[392] <= 0.5\ngini = 0.489\nsamples = 14686\nvalue = [8426, 6260]"] ;
38 -> 39 ;
40 [label="X[175] <= 0.5\ngini = 0.489\nsamples = 14671\nvalue = [8422, 6249]"] ;
39 -> 40 ;
41 [label="X[255] <= 0.5\ngini = 0.489\nsamples = 14661\nvalue = [8420, 6241]"] ;
40 -> 41 ;
42 [label="X[515] <= 0.5\ngini = 0.489\nsamples = 14632\nvalue = [8397, 6235]"] ;
41 -> 42 ;
43 [label="X[57] <= 0.5\ngini = 0.489\nsamples = 14609\nvalue = [8389, 6220]"] ;
42 -> 43 ;
44 [label="X[89] <= 0.5\ngini = 0.489\nsamples = 14595\nvalue = [8385, 6210]"] ;
43 -> 44 ;
45 [label="X[165] <= 0.5\ngini = 0.489\nsamples = 14500\nvalue = [8320, 6180]"] ;
44 -> 45 ;
46 [label="X[468] <= 0.5\ngini = 0.489\nsamples = 14464\nvalue = [8293, 6171]"] ;
45 -> 46 ;
47 [label="X[330] <= 0.5\ngini = 0.489\nsamples = 14437\nvalue = [8283, 6154]"] ;
46 -> 47 ;
48 [label="X[116] <= 0.5\ngini = 0.489\nsamples = 14421\nvalue = [8278, 6143]"] ;
47 -> 48 ;
49 [label="X[261] <= 0.5\ngini = 0.489\nsamples = 14415\nvalue = [8277, 6138]"] ;
48 -> 49 ;
50 [label="X[343] <= 0.5\ngini = 0.489\nsamples = 14412\nvalue = [8277, 6135]"] ;
49 -> 50 ;
51 [label="X[111] <= 0.5\ngini = 0.489\nsamples = 14409\nvalue = [8277, 6132]"] ;
50 -> 51 ;
52 [label="X[558] <= 0.5\ngini = 0.489\nsamples = 14406\nvalue = [8277, 6129]"] ;
51 -> 52 ;
53 [label="X[124] <= 0.5\ngini = 0.489\nsamples = 14403\nvalue = [8277, 6126]"] ;
52 -> 53 ;
54 [label="X[282] <= 0.5\ngini = 0.489\nsamples = 14390\nvalue = [8266, 6124]"] ;
53 -> 54 ;
55 [label="X[50] <= 0.5\ngini = 0.489\nsamples = 14277\nvalue = [8191, 6086]"] ;
54 -> 55 ;
56 [label="X[575] <= 0.5\ngini = 0.489\nsamples = 14272\nvalue = [8186, 6086]"] ;
55 -> 56 ;
57 [label="X[356] <= 0.5\ngini = 0.489\nsamples = 14267\nvalue = [8181, 6086]"] ;
56 -> 57 ;
58 [label="X[126] <= 0.5\ngini = 0.489\nsamples = 14223\nvalue = [8162, 6061]"] ;
57 -> 58 ;
59 [label="X[269] <= 0.5\ngini = 0.489\nsamples = 14183\nvalue = [8145, 6038]"] ;
58 -> 59 ;
60 [label="X[52] <= 0.5\ngini = 0.489\nsamples = 14168\nvalue = [8140, 6028]"] ;
59 -> 60 ;
61 [label="X[381] <= 0.5\ngini = 0.489\nsamples = 14153\nvalue = [8135, 6018]"] ;
60 -> 61 ;
62 [label="X[207] <= 0.5\ngini = 0.489\nsamples = 14145\nvalue = [8133, 6012]"] ;
61 -> 62 ;
63 [label="X[586] <= 0.5\ngini = 0.489\nsamples = 14137\nvalue = [8131, 6006]"] ;
62 -> 63 ;
64 [label="X[54] <= 0.5\ngini = 0.489\nsamples = 14125\nvalue = [8121, 6004]"] ;
63 -> 64 ;
65 [label="X[115] <= 0.5\ngini = 0.489\nsamples = 14084\nvalue = [8103, 5981]"] ;
64 -> 65 ;
66 [label="X[374] <= 0.5\ngini = 0.489\nsamples = 14074\nvalue = [8100, 5974]"] ;
65 -> 66 ;
67 [label="X[692] <= 0.5\ngini = 0.489\nsamples = 14064\nvalue = [8097, 5967]"] ;
66 -> 67 ;
68 [label="X[86] <= 0.5\ngini = 0.489\nsamples = 14060\nvalue = [8093, 5967]"] ;
67 -> 68 ;
69 [label="X[2] <= 0.5\ngini = 0.489\nsamples = 14056\nvalue = [8089, 5967]"] ;
68 -> 69 ;
70 [label="X[428] <= 0.5\ngini = 0.489\nsamples = 14051\nvalue = [8088, 5963]"] ;
69 -> 70 ;
71 [label="X[664] <= 0.5\ngini = 0.489\nsamples = 14046\nvalue = [8087, 5959]"] ;
70 -> 71 ;
72 [label="X[191] <= 0.5\ngini = 0.488\nsamples = 14041\nvalue = [8086, 5955]"] ;
71 -> 72 ;
73 [label="X[59] <= 0.5\ngini = 0.488\nsamples = 14029\nvalue = [8082, 5947]"] ;
72 -> 73 ;
74 [label="X[360] <= 0.5\ngini = 0.489\nsamples = 13991\nvalue = [8055, 5936]"] ;
73 -> 74 ;
75 [label="X[618] <= 0.5\ngini = 0.489\nsamples = 13822\nvalue = [7947, 5875]"] ;
74 -> 75 ;
76 [label="X[128] <= 0.5\ngini = 0.489\nsamples = 13765\nvalue = [7908, 5857]"] ;
75 -> 76 ;
77 [label="X[430] <= 0.5\ngini = 0.489\nsamples = 12769\nvalue = [7311, 5458]"] ;
76 -> 77 ;
78 [label="X[95] <= 0.5\ngini = 0.49\nsamples = 11588\nvalue = [6607, 4981]"] ;
77 -> 78 ;
79 [label="X[294] <= 0.5\ngini = 0.491\nsamples = 11212\nvalue = [6376, 4836]"] ;
78 -> 79 ;
80 [label="X[147] <= 0.5\ngini = 0.491\nsamples = 11073\nvalue = [6287, 4786]"] ;
79 -> 80 ;
81 [label="X[675] <= 0.5\ngini = 0.492\nsamples = 8529\nvalue = [4803, 3726]"] ;
80 -> 81 ;
82 [label="X[314] <= 0.5\ngini = 0.492\nsamples = 8518\nvalue = [4794, 3724]"] ;
81 -> 82 ;
83 [label="X[475] <= 0.5\ngini = 0.492\nsamples = 8490\nvalue = [4774, 3716]"] ;
82 -> 83 ;
84 [label="X[483] <= 0.5\ngini = 0.492\nsamples = 8488\nvalue = [4774, 3714]"] ;
83 -> 84 ;
85 [label="X[492] <= 0.5\ngini = 0.492\nsamples = 8486\nvalue = [4774, 3712]"] ;
84 -> 85 ;
86 [label="X[283] <= 0.5\ngini = 0.492\nsamples = 8484\nvalue = [4774, 3710]"] ;
85 -> 86 ;
87 [label="X[368] <= 0.5\ngini = 0.492\nsamples = 8482\nvalue = [4774, 3708]"] ;
86 -> 87 ;
88 [label="X[418] <= 0.5\ngini = 0.492\nsamples = 8480\nvalue = [4774, 3706]"] ;
87 -> 88 ;
89 [label="X[58] <= 0.5\ngini = 0.492\nsamples = 8478\nvalue = [4774, 3704]"] ;
88 -> 89 ;
90 [label="X[5] <= 0.5\ngini = 0.492\nsamples = 8476\nvalue = [4774, 3702]"] ;
89 -> 90 ;
91 [label="X[591] <= 0.5\ngini = 0.492\nsamples = 8474\nvalue = [4774, 3700]"] ;
90 -> 91 ;
92 [label="X[622] <= 0.5\ngini = 0.492\nsamples = 8472\nvalue = [4774, 3698]"] ;
91 -> 92 ;
93 [label="X[642] <= 0.5\ngini = 0.492\nsamples = 8470\nvalue = [4774, 3696]"] ;
92 -> 93 ;
94 [label="X[573] <= 0.5\ngini = 0.492\nsamples = 8468\nvalue = [4774, 3694]"] ;
93 -> 94 ;
95 [label="X[444] <= 0.5\ngini = 0.492\nsamples = 8466\nvalue = [4774, 3692]"] ;
94 -> 95 ;
96 [label="X[389] <= 0.5\ngini = 0.492\nsamples = 8464\nvalue = [4774, 3690]"] ;
95 -> 96 ;
97 [label="X[238] <= 0.5\ngini = 0.492\nsamples = 8462\nvalue = [4774, 3688]"] ;
96 -> 97 ;
98 [label="X[274] <= 0.5\ngini = 0.492\nsamples = 8460\nvalue = [4774, 3686]"] ;
97 -> 98 ;
99 [label="X[234] <= 0.5\ngini = 0.492\nsamples = 8458\nvalue = [4774, 3684]"] ;
98 -> 99 ;
100 [label="X[525] <= 0.5\ngini = 0.492\nsamples = 8456\nvalue = [4774, 3682]"] ;
99 -> 100 ;
101 [label="X[540] <= 0.5\ngini = 0.492\nsamples = 8454\nvalue = [4774, 3680]"] ;
100 -> 101 ;
102 [label="X[491] <= 0.5\ngini = 0.492\nsamples = 8452\nvalue = [4774, 3678]"] ;
101 -> 102 ;
103 [label="X[200] <= 0.5\ngini = 0.492\nsamples = 8450\nvalue = [4774, 3676]"] ;
102 -> 103 ;
104 [label="X[526] <= 0.5\ngini = 0.492\nsamples = 8443\nvalue = [4768, 3675]"] ;
103 -> 104 ;
105 [label="X[71] <= 0.5\ngini = 0.492\nsamples = 8421\nvalue = [4752, 3669]"] ;
104 -> 105 ;
106 [label="X[561] <= 0.5\ngini = 0.492\nsamples = 8418\nvalue = [4749, 3669]"] ;
105 -> 106 ;
107 [label="X[674] <= 0.5\ngini = 0.492\nsamples = 8415\nvalue = [4746, 3669]"] ;
106 -> 107 ;
108 [label="X[416] <= 0.5\ngini = 0.492\nsamples = 8412\nvalue = [4743, 3669]"] ;
107 -> 108 ;
109 [label="X[589] <= 0.5\ngini = 0.492\nsamples = 8409\nvalue = [4740, 3669]"] ;
108 -> 109 ;
110 [label="X[323] <= 0.5\ngini = 0.492\nsamples = 8406\nvalue = [4737, 3669]"] ;
109 -> 110 ;
111 [label="X[161] <= 0.5\ngini = 0.492\nsamples = 8403\nvalue = [4734, 3669]"] ;
110 -> 111 ;
112 [label="X[44] <= 0.5\ngini = 0.492\nsamples = 8400\nvalue = [4731, 3669]"] ;
111 -> 112 ;
113 [label="X[181] <= 0.5\ngini = 0.492\nsamples = 8387\nvalue = [4721, 3666]"] ;
112 -> 113 ;
114 [label="X[351] <= 0.5\ngini = 0.493\nsamples = 7706\nvalue = [4319, 3387]"] ;
113 -> 114 ;
115 [label="X[239] <= 0.5\ngini = 0.493\nsamples = 7395\nvalue = [4132, 3263]"] ;
114 -> 115 ;
116 [label="X[429] <= 0.5\ngini = 0.494\nsamples = 6128\nvalue = [3398, 2730]"] ;
115 -> 116 ;
117 [label="X[246] <= 0.5\ngini = 0.494\nsamples = 6035\nvalue = [3339, 2696]"] ;
116 -> 117 ;
118 [label="X[49] <= 0.5\ngini = 0.494\nsamples = 6017\nvalue = [3326, 2691]"] ;
117 -> 118 ;
119 [label="X[489] <= 0.5\ngini = 0.495\nsamples = 5978\nvalue = [3300, 2678]"] ;
118 -> 119 ;
120 [label="X[554] <= 0.5\ngini = 0.495\nsamples = 5971\nvalue = [3298, 2673]"] ;
119 -> 120 ;
121 [label="X[399] <= 0.5\ngini = 0.494\nsamples = 5964\nvalue = [3296, 2668]"] ;
120 -> 121 ;
122 [label="X[493] <= 0.5\ngini = 0.494\nsamples = 5957\nvalue = [3294, 2663]"] ;
121 -> 122 ;
123 [label="X[93] <= 0.5\ngini = 0.494\nsamples = 5951\nvalue = [3289, 2662]"] ;
122 -> 123 ;
124 [label="X[194] <= 0.5\ngini = 0.495\nsamples = 5945\nvalue = [3284, 2661]"] ;
123 -> 124 ;
125 [label="X[335] <= 0.5\ngini = 0.494\nsamples = 5936\nvalue = [3281, 2655]"] ;
124 -> 125 ;
126 [label="X[288] <= 0.5\ngini = 0.494\nsamples = 5927\nvalue = [3278, 2649]"] ;
125 -> 126 ;
127 [label="X[201] <= 0.5\ngini = 0.494\nsamples = 5899\nvalue = [3266, 2633]"] ;
126 -> 127 ;
128 [label="X[566] <= 0.5\ngini = 0.494\nsamples = 5869\nvalue = [3253, 2616]"] ;
127 -> 128 ;
129 [label="X[616] <= 0.5\ngini = 0.494\nsamples = 5837\nvalue = [3239, 2598]"] ;
128 -> 129 ;
130 [label="X[620] <= 0.5\ngini = 0.494\nsamples = 5835\nvalue = [3237, 2598]"] ;
129 -> 130 ;
131 [label="X[79] <= 0.5\ngini = 0.494\nsamples = 5833\nvalue = [3235, 2598]"] ;
130 -> 131 ;
132 [label="X[252] <= 0.5\ngini = 0.494\nsamples = 5831\nvalue = [3233, 2598]"] ;
131 -> 132 ;
133 [label="X[275] <= 0.5\ngini = 0.494\nsamples = 5829\nvalue = [3231, 2598]"] ;
132 -> 133 ;
134 [label="X[630] <= 0.5\ngini = 0.494\nsamples = 5827\nvalue = [3229, 2598]"] ;
133 -> 134 ;
135 [label="X[196] <= 0.5\ngini = 0.494\nsamples = 5825\nvalue = [3227, 2598]"] ;
134 -> 135 ;
136 [label="X[220] <= 0.5\ngini = 0.494\nsamples = 5823\nvalue = [3225, 2598]"] ;
135 -> 136 ;
137 [label="X[694] <= 0.5\ngini = 0.494\nsamples = 5821\nvalue = [3223, 2598]"] ;
136 -> 137 ;
138 [label="X[13] <= 0.5\ngini = 0.494\nsamples = 5819\nvalue = [3221, 2598]"] ;
137 -> 138 ;
139 [label="X[437] <= 0.5\ngini = 0.494\nsamples = 5749\nvalue = [3177, 2572]"] ;
138 -> 139 ;
140 [label="X[285] <= 0.5\ngini = 0.495\nsamples = 5732\nvalue = [3165, 2567]"] ;
139 -> 140 ;
141 [label="X[154] <= 0.5\ngini = 0.495\nsamples = 5730\nvalue = [3163, 2567]"] ;
140 -> 141 ;
142 [label="X[555] <= 0.5\ngini = 0.495\nsamples = 5728\nvalue = [3161, 2567]"] ;
141 -> 142 ;
143 [label="X[636] <= 0.5\ngini = 0.495\nsamples = 5726\nvalue = [3159, 2567]"] ;
142 -> 143 ;
144 [label="X[4] <= 0.5\ngini = 0.495\nsamples = 5724\nvalue = [3157, 2567]"] ;
143 -> 144 ;
145 [label="X[384] <= 0.5\ngini = 0.495\nsamples = 5722\nvalue = [3155, 2567]"] ;
144 -> 145 ;
146 [label="X[670] <= 0.5\ngini = 0.495\nsamples = 5720\nvalue = [3153, 2567]"] ;
145 -> 146 ;
147 [label="X[305] <= 0.5\ngini = 0.495\nsamples = 5718\nvalue = [3151, 2567]"] ;
146 -> 147 ;
148 [label="X[87] <= 0.5\ngini = 0.495\nsamples = 5716\nvalue = [3149, 2567]"] ;
147 -> 148 ;
149 [label="X[498] <= 0.5\ngini = 0.495\nsamples = 5714\nvalue = [3147, 2567]"] ;
148 -> 149 ;
150 [label="X[587] <= 0.5\ngini = 0.495\nsamples = 5712\nvalue = [3145, 2567]"] ;
149 -> 150 ;
151 [label="X[270] <= 0.5\ngini = 0.495\nsamples = 5710\nvalue = [3143, 2567]"] ;
150 -> 151 ;
152 [label="X[542] <= 0.5\ngini = 0.495\nsamples = 5708\nvalue = [3141, 2567]"] ;
151 -> 152 ;
153 [label="X[496] <= 0.5\ngini = 0.495\nsamples = 5706\nvalue = [3139, 2567]"] ;
152 -> 153 ;
154 [label="X[153] <= 0.5\ngini = 0.495\nsamples = 5622\nvalue = [3087, 2535]"] ;
153 -> 154 ;
155 [label="X[634] <= 0.5\ngini = 0.495\nsamples = 5620\nvalue = [3085, 2535]"] ;
154 -> 155 ;
156 [label="X[158] <= 0.5\ngini = 0.495\nsamples = 5618\nvalue = [3083, 2535]"] ;
155 -> 156 ;
157 [label="X[534] <= 0.5\ngini = 0.495\nsamples = 5508\nvalue = [3016, 2492]"] ;
156 -> 157 ;
158 [label="X[256] <= 0.5\ngini = 0.496\nsamples = 5506\nvalue = [3014, 2492]"] ;
157 -> 158 ;
159 [label="X[78] <= 0.5\ngini = 0.496\nsamples = 5479\nvalue = [2996, 2483]"] ;
158 -> 159 ;
160 [label="X[10] <= 0.5\ngini = 0.496\nsamples = 5475\nvalue = [2995, 2480]"] ;
159 -> 160 ;
161 [label="X[96] <= 0.5\ngini = 0.496\nsamples = 5471\nvalue = [2994, 2477]"] ;
160 -> 161 ;
162 [label="X[0] <= 0.5\ngini = 0.495\nsamples = 5467\nvalue = [2993, 2474]"] ;
161 -> 162 ;
163 [label="X[23] <= 0.5\ngini = 0.495\nsamples = 5463\nvalue = [2992, 2471]"] ;
162 -> 163 ;
164 [label="X[276] <= 0.5\ngini = 0.495\nsamples = 5459\nvalue = [2991, 2468]"] ;
163 -> 164 ;
165 [label="X[547] <= 0.5\ngini = 0.495\nsamples = 5455\nvalue = [2990, 2465]"] ;
164 -> 165 ;
166 [label="X[244] <= 0.5\ngini = 0.495\nsamples = 5451\nvalue = [2989, 2462]"] ;
165 -> 166 ;
167 [label="X[41] <= 0.5\ngini = 0.495\nsamples = 5447\nvalue = [2988, 2459]"] ;
166 -> 167 ;
168 [label="X[488] <= 0.5\ngini = 0.495\nsamples = 5439\nvalue = [2982, 2457]"] ;
167 -> 168 ;
169 [label="X[221] <= 0.5\ngini = 0.496\nsamples = 5254\nvalue = [2873, 2381]"] ;
168 -> 169 ;
170 [label="X[531] <= 0.5\ngini = 0.496\nsamples = 5249\nvalue = [2869, 2380]"] ;
169 -> 170 ;
171 [label="X[208] <= 0.5\ngini = 0.496\nsamples = 5244\nvalue = [2865, 2379]"] ;
170 -> 171 ;
172 [label="X[457] <= 0.5\ngini = 0.496\nsamples = 5239\nvalue = [2861, 2378]"] ;
171 -> 172 ;
173 [label="X[567] <= 0.5\ngini = 0.496\nsamples = 5222\nvalue = [2854, 2368]"] ;
172 -> 173 ;
174 [label="X[187] <= 0.5\ngini = 0.496\nsamples = 5221\nvalue = [2854, 2367]"] ;
173 -> 174 ;
175 [label="X[447] <= 0.5\ngini = 0.496\nsamples = 5220\nvalue = [2854, 2366]"] ;
174 -> 175 ;
176 [label="X[357] <= 0.5\ngini = 0.496\nsamples = 5219\nvalue = [2854, 2365]"] ;
175 -> 176 ;
177 [label="X[471] <= 0.5\ngini = 0.496\nsamples = 5218\nvalue = [2854, 2364]"] ;
176 -> 177 ;
178 [label="X[588] <= 0.5\ngini = 0.496\nsamples = 5217\nvalue = [2854, 2363]"] ;
177 -> 178 ;
179 [label="X[162] <= 0.5\ngini = 0.496\nsamples = 5216\nvalue = [2854, 2362]"] ;
178 -> 179 ;
180 [label="X[139] <= 0.5\ngini = 0.496\nsamples = 5215\nvalue = [2854, 2361]"] ;
179 -> 180 ;
181 [label="X[487] <= 0.5\ngini = 0.496\nsamples = 5214\nvalue = [2854, 2360]"] ;
180 -> 181 ;
182 [label="X[140] <= 0.5\ngini = 0.495\nsamples = 5213\nvalue = [2854, 2359]"] ;
181 -> 182 ;
183 [label="X[516] <= 0.5\ngini = 0.495\nsamples = 5212\nvalue = [2854, 2358]"] ;
182 -> 183 ;
184 [label="X[412] <= 0.5\ngini = 0.495\nsamples = 5211\nvalue = [2854, 2357]"] ;
183 -> 184 ;
185 [label="X[83] <= 0.5\ngini = 0.495\nsamples = 5210\nvalue = [2854, 2356]"] ;
184 -> 185 ;
186 [label="X[676] <= 0.5\ngini = 0.495\nsamples = 5209\nvalue = [2854, 2355]"] ;
185 -> 186 ;
187 [label="X[247] <= 0.5\ngini = 0.495\nsamples = 5208\nvalue = [2854, 2354]"] ;
186 -> 187 ;
188 [label="X[190] <= 0.5\ngini = 0.495\nsamples = 5207\nvalue = [2854, 2353]"] ;
187 -> 188 ;
189 [label="X[109] <= 0.5\ngini = 0.495\nsamples = 5206\nvalue = [2854, 2352]"] ;
188 -> 189 ;
190 [label="X[40] <= 0.5\ngini = 0.495\nsamples = 5205\nvalue = [2854, 2351]"] ;
189 -> 190 ;
191 [label="X[514] <= 0.5\ngini = 0.495\nsamples = 5204\nvalue = [2854, 2350]"] ;
190 -> 191 ;
192 [label="X[419] <= 0.5\ngini = 0.495\nsamples = 5203\nvalue = [2854, 2349]"] ;
191 -> 192 ;
193 [label="X[571] <= 0.5\ngini = 0.495\nsamples = 5202\nvalue = [2854, 2348]"] ;
192 -> 193 ;
194 [label="X[631] <= 0.5\ngini = 0.495\nsamples = 5201\nvalue = [2854, 2347]"] ;
193 -> 194 ;
195 [label="X[317] <= 0.5\ngini = 0.495\nsamples = 5200\nvalue = [2854, 2346]"] ;
194 -> 195 ;
196 [label="X[529] <= 0.5\ngini = 0.495\nsamples = 5199\nvalue = [2854, 2345]"] ;
195 -> 196 ;
197 [label="X[257] <= 0.5\ngini = 0.495\nsamples = 5198\nvalue = [2854, 2344]"] ;
196 -> 197 ;
198 [label="X[92] <= 0.5\ngini = 0.495\nsamples = 5197\nvalue = [2854, 2343]"] ;
197 -> 198 ;
199 [label="X[134] <= 0.5\ngini = 0.495\nsamples = 5196\nvalue = [2854, 2342]"] ;
198 -> 199 ;
200 [label="X[680] <= 0.5\ngini = 0.495\nsamples = 5195\nvalue = [2854, 2341]"] ;
199 -> 200 ;
201 [label="X[237] <= 0.5\ngini = 0.495\nsamples = 5194\nvalue = [2854, 2340]"] ;
200 -> 201 ;
202 [label="X[278] <= 0.5\ngini = 0.495\nsamples = 5193\nvalue = [2854, 2339]"] ;
201 -> 202 ;
203 [label="X[182] <= 0.5\ngini = 0.495\nsamples = 5192\nvalue = [2854, 2338]"] ;
202 -> 203 ;
204 [label="X[102] <= 0.5\ngini = 0.495\nsamples = 5191\nvalue = [2854, 2337]"] ;
203 -> 204 ;
205 [label="X[530] <= 0.5\ngini = 0.495\nsamples = 5190\nvalue = [2854, 2336]"] ;
204 -> 205 ;
206 [label="X[499] <= 0.5\ngini = 0.495\nsamples = 5189\nvalue = [2854, 2335]"] ;
205 -> 206 ;
207 [label="X[527] <= 0.5\ngini = 0.495\nsamples = 5188\nvalue = [2854, 2334]"] ;
206 -> 207 ;
208 [label="X[477] <= 0.5\ngini = 0.495\nsamples = 5187\nvalue = [2854, 2333]"] ;
207 -> 208 ;
209 [label="X[155] <= 0.5\ngini = 0.495\nsamples = 5186\nvalue = [2854, 2332]"] ;
208 -> 209 ;
210 [label="X[639] <= 0.5\ngini = 0.495\nsamples = 5185\nvalue = [2854, 2331]"] ;
209 -> 210 ;
211 [label="X[148] <= 0.5\ngini = 0.495\nsamples = 5184\nvalue = [2854, 2330]"] ;
210 -> 211 ;
212 [label="X[383] <= 0.5\ngini = 0.495\nsamples = 5183\nvalue = [2854, 2329]"] ;
211 -> 212 ;
213 [label="X[137] <= 0.5\ngini = 0.495\nsamples = 5182\nvalue = [2854, 2328]"] ;
212 -> 213 ;
214 [label="X[259] <= 0.5\ngini = 0.495\nsamples = 5181\nvalue = [2854, 2327]"] ;
213 -> 214 ;
215 [label="X[125] <= 0.5\ngini = 0.495\nsamples = 5180\nvalue = [2854, 2326]"] ;
214 -> 215 ;
216 [label="X[509] <= 0.5\ngini = 0.495\nsamples = 5179\nvalue = [2854, 2325]"] ;
215 -> 216 ;
217 [label="X[446] <= 0.5\ngini = 0.495\nsamples = 5178\nvalue = [2854, 2324]"] ;
216 -> 217 ;
218 [label="X[228] <= 0.5\ngini = 0.495\nsamples = 5177\nvalue = [2854, 2323]"] ;
217 -> 218 ;
219 [label="X[373] <= 0.5\ngini = 0.495\nsamples = 5176\nvalue = [2854, 2322]"] ;
218 -> 219 ;
220 [label="X[408] <= 0.5\ngini = 0.495\nsamples = 5175\nvalue = [2854, 2321]"] ;
219 -> 220 ;
221 [label="X[599] <= 0.5\ngini = 0.495\nsamples = 5174\nvalue = [2854, 2320]"] ;
220 -> 221 ;
222 [label="X[445] <= 0.5\ngini = 0.495\nsamples = 5173\nvalue = [2854, 2319]"] ;
221 -> 222 ;
223 [label="X[470] <= 0.5\ngini = 0.495\nsamples = 5172\nvalue = [2854, 2318]"] ;
222 -> 223 ;
224 [label="X[21] <= 0.5\ngini = 0.495\nsamples = 5171\nvalue = [2854, 2317]"] ;
223 -> 224 ;
225 [label="X[301] <= 0.5\ngini = 0.495\nsamples = 5170\nvalue = [2854, 2316]"] ;
224 -> 225 ;
226 [label="X[66] <= 0.5\ngini = 0.495\nsamples = 5169\nvalue = [2854, 2315]"] ;
225 -> 226 ;
227 [label="X[42] <= 0.5\ngini = 0.495\nsamples = 5168\nvalue = [2854, 2314]"] ;
226 -> 227 ;
228 [label="X[548] <= 0.5\ngini = 0.495\nsamples = 5167\nvalue = [2854, 2313]"] ;
227 -> 228 ;
229 [label="X[422] <= 0.5\ngini = 0.494\nsamples = 5166\nvalue = [2854, 2312]"] ;
228 -> 229 ;
230 [label="X[595] <= 0.5\ngini = 0.494\nsamples = 5165\nvalue = [2854, 2311]"] ;
229 -> 230 ;
231 [label="X[176] <= 0.5\ngini = 0.494\nsamples = 5164\nvalue = [2854, 2310]"] ;
230 -> 231 ;
232 [label="X[536] <= 0.5\ngini = 0.494\nsamples = 5163\nvalue = [2854, 2309]"] ;
231 -> 232 ;
233 [label="X[135] <= 0.5\ngini = 0.494\nsamples = 5162\nvalue = [2854, 2308]"] ;
232 -> 233 ;
234 [label="X[479] <= 0.5\ngini = 0.494\nsamples = 5161\nvalue = [2854, 2307]"] ;
233 -> 234 ;
235 [label="X[507] <= 0.5\ngini = 0.494\nsamples = 5160\nvalue = [2854, 2306]"] ;
234 -> 235 ;
236 [label="X[490] <= 0.5\ngini = 0.494\nsamples = 5159\nvalue = [2854, 2305]"] ;
235 -> 236 ;
237 [label="X[612] <= 0.5\ngini = 0.494\nsamples = 5158\nvalue = [2854, 2304]"] ;
236 -> 237 ;
238 [label="X[232] <= 0.5\ngini = 0.494\nsamples = 5157\nvalue = [2854, 2303]"] ;
237 -> 238 ;
239 [label="X[627] <= 0.5\ngini = 0.494\nsamples = 5156\nvalue = [2854, 2302]"] ;
238 -> 239 ;
240 [label="X[325] <= 0.5\ngini = 0.494\nsamples = 5155\nvalue = [2854, 2301]"] ;
239 -> 240 ;
241 [label="X[650] <= 0.5\ngini = 0.494\nsamples = 5154\nvalue = [2854, 2300]"] ;
240 -> 241 ;
242 [label="X[659] <= 0.5\ngini = 0.494\nsamples = 5153\nvalue = [2854, 2299]"] ;
241 -> 242 ;
243 [label="X[167] <= 0.5\ngini = 0.494\nsamples = 5152\nvalue = [2854, 2298]"] ;
242 -> 243 ;
244 [label="X[685] <= 0.5\ngini = 0.494\nsamples = 5151\nvalue = [2854, 2297]"] ;
243 -> 244 ;
245 [label="X[454] <= 0.5\ngini = 0.494\nsamples = 5150\nvalue = [2854, 2296]"] ;
244 -> 245 ;
246 [label="X[633] <= 0.5\ngini = 0.494\nsamples = 5149\nvalue = [2854, 2295]"] ;
245 -> 246 ;
247 [label="X[63] <= 0.5\ngini = 0.494\nsamples = 5148\nvalue = [2854, 2294]"] ;
246 -> 247 ;
248 [label="X[212] <= 0.5\ngini = 0.494\nsamples = 5147\nvalue = [2854, 2293]"] ;
247 -> 248 ;
249 [label="X[104] <= 0.5\ngini = 0.494\nsamples = 5146\nvalue = [2854, 2292]"] ;
248 -> 249 ;
250 [label="X[107] <= 0.5\ngini = 0.494\nsamples = 5145\nvalue = [2854, 2291]"] ;
249 -> 250 ;
251 [label="X[299] <= 0.5\ngini = 0.494\nsamples = 5144\nvalue = [2854, 2290]"] ;
250 -> 251 ;
252 [label="X[152] <= 0.5\ngini = 0.494\nsamples = 5143\nvalue = [2854, 2289]"] ;
251 -> 252 ;
253 [label="X[478] <= 0.5\ngini = 0.494\nsamples = 5142\nvalue = [2854, 2288]"] ;
252 -> 253 ;
254 [label="X[67] <= 0.5\ngini = 0.494\nsamples = 5141\nvalue = [2854, 2287]"] ;
253 -> 254 ;
255 [label="X[17] <= 0.5\ngini = 0.494\nsamples = 5140\nvalue = [2854, 2286]"] ;
254 -> 255 ;
256 [label="X[267] <= 0.5\ngini = 0.494\nsamples = 5139\nvalue = [2854, 2285]"] ;
255 -> 256 ;
257 [label="X[33] <= 0.5\ngini = 0.494\nsamples = 5138\nvalue = [2854, 2284]"] ;
256 -> 257 ;
258 [label="X[65] <= 0.5\ngini = 0.494\nsamples = 5137\nvalue = [2854, 2283]"] ;
257 -> 258 ;
259 [label="X[77] <= 0.5\ngini = 0.494\nsamples = 5136\nvalue = [2854, 2282]"] ;
258 -> 259 ;
260 [label="X[112] <= 0.5\ngini = 0.494\nsamples = 5135\nvalue = [2854, 2281]"] ;
259 -> 260 ;
261 [label="X[665] <= 0.5\ngini = 0.494\nsamples = 5134\nvalue = [2854, 2280]"] ;
260 -> 261 ;
262 [label="X[683] <= 0.5\ngini = 0.494\nsamples = 5133\nvalue = [2854, 2279]"] ;
261 -> 262 ;
263 [label="X[300] <= 0.5\ngini = 0.494\nsamples = 5132\nvalue = [2854, 2278]"] ;
262 -> 263 ;
264 [label="X[179] <= 0.5\ngini = 0.494\nsamples = 5131\nvalue = [2854, 2277]"] ;
263 -> 264 ;
265 [label="X[570] <= 0.5\ngini = 0.494\nsamples = 5130\nvalue = [2854, 2276]"] ;
264 -> 265 ;
266 [label="X[309] <= 0.5\ngini = 0.494\nsamples = 5129\nvalue = [2854, 2275]"] ;
265 -> 266 ;
267 [label="X[427] <= 0.5\ngini = 0.494\nsamples = 5128\nvalue = [2854, 2274]"] ;
266 -> 267 ;
268 [label="X[424] <= 0.5\ngini = 0.494\nsamples = 5127\nvalue = [2854, 2273]"] ;
267 -> 268 ;
269 [label="X[12] <= 0.5\ngini = 0.494\nsamples = 5126\nvalue = [2854, 2272]"] ;
268 -> 269 ;
270 [label="X[549] <= 0.5\ngini = 0.494\nsamples = 5125\nvalue = [2854, 2271]"] ;
269 -> 270 ;
271 [label="X[439] <= 0.5\ngini = 0.494\nsamples = 5124\nvalue = [2854, 2270]"] ;
270 -> 271 ;
272 [label="X[24] <= 0.5\ngini = 0.493\nsamples = 5123\nvalue = [2854, 2269]"] ;
271 -> 272 ;
273 [label="X[352] <= 0.5\ngini = 0.493\nsamples = 5122\nvalue = [2854, 2268]"] ;
272 -> 273 ;
274 [label="X[695] <= 0.5\ngini = 0.493\nsamples = 5121\nvalue = [2854, 2267]"] ;
273 -> 274 ;
275 [label="X[460] <= 0.5\ngini = 0.493\nsamples = 5120\nvalue = [2854, 2266]"] ;
274 -> 275 ;
276 [label="X[512] <= 0.5\ngini = 0.493\nsamples = 5119\nvalue = [2854, 2265]"] ;
275 -> 276 ;
277 [label="X[443] <= 0.5\ngini = 0.493\nsamples = 5118\nvalue = [2854, 2264]"] ;
276 -> 277 ;
278 [label="X[46] <= 0.5\ngini = 0.493\nsamples = 5117\nvalue = [2854, 2263]"] ;
277 -> 278 ;
279 [label="X[64] <= 0.5\ngini = 0.493\nsamples = 5116\nvalue = [2854, 2262]"] ;
278 -> 279 ;
280 [label="X[114] <= 0.5\ngini = 0.493\nsamples = 5115\nvalue = [2854, 2261]"] ;
279 -> 280 ;
281 [label="X[552] <= 0.5\ngini = 0.493\nsamples = 5114\nvalue = [2854, 2260]"] ;
280 -> 281 ;
282 [label="X[453] <= 0.5\ngini = 0.493\nsamples = 5113\nvalue = [2854, 2259]"] ;
281 -> 282 ;
283 [label="X[132] <= 0.5\ngini = 0.493\nsamples = 5112\nvalue = [2854, 2258]"] ;
282 -> 283 ;
284 [label="X[47] <= 0.5\ngini = 0.493\nsamples = 5111\nvalue = [2854, 2257]"] ;
283 -> 284 ;
285 [label="X[266] <= 0.5\ngini = 0.493\nsamples = 5110\nvalue = [2854, 2256]"] ;
284 -> 285 ;
286 [label="X[598] <= 0.5\ngini = 0.493\nsamples = 5109\nvalue = [2854, 2255]"] ;
285 -> 286 ;
287 [label="X[69] <= 0.5\ngini = 0.493\nsamples = 5108\nvalue = [2854, 2254]"] ;
286 -> 287 ;
288 [label="X[572] <= 0.5\ngini = 0.493\nsamples = 5107\nvalue = [2854, 2253]"] ;
287 -> 288 ;
289 [label="X[36] <= 0.5\ngini = 0.493\nsamples = 5106\nvalue = [2854, 2252]"] ;
288 -> 289 ;
290 [label="X[76] <= 0.5\ngini = 0.493\nsamples = 5105\nvalue = [2854, 2251]"] ;
289 -> 290 ;
291 [label="X[415] <= 0.5\ngini = 0.493\nsamples = 5104\nvalue = [2854, 2250]"] ;
290 -> 291 ;
292 [label="X[398] <= 0.5\ngini = 0.493\nsamples = 5103\nvalue = [2854, 2249]"] ;
291 -> 292 ;
293 [label="X[538] <= 0.5\ngini = 0.493\nsamples = 5102\nvalue = [2854, 2248]"] ;
292 -> 293 ;
294 [label="X[458] <= 0.5\ngini = 0.493\nsamples = 5101\nvalue = [2854, 2247]"] ;
293 -> 294 ;
295 [label="X[442] <= 0.5\ngini = 0.493\nsamples = 5100\nvalue = [2854, 2246]"] ;
294 -> 295 ;
296 [label="X[436] <= 0.5\ngini = 0.493\nsamples = 5099\nvalue = [2854, 2245]"] ;
295 -> 296 ;
297 [label="X[371] <= 0.5\ngini = 0.493\nsamples = 5098\nvalue = [2854, 2244]"] ;
296 -> 297 ;
298 [label="X[581] <= 0.5\ngini = 0.493\nsamples = 5097\nvalue = [2854, 2243]"] ;
297 -> 298 ;
299 [label="X[106] <= 0.5\ngini = 0.493\nsamples = 5096\nvalue = [2854, 2242]"] ;
298 -> 299 ;
300 [label="X[11] <= 0.5\ngini = 0.493\nsamples = 5095\nvalue = [2854, 2241]"] ;
299 -> 300 ;
301 [label="X[651] <= 0.5\ngini = 0.493\nsamples = 5094\nvalue = [2854, 2240]"] ;
300 -> 301 ;
302 [label="X[505] <= 0.5\ngini = 0.493\nsamples = 5093\nvalue = [2854, 2239]"] ;
301 -> 302 ;
303 [label="X[637] <= 0.5\ngini = 0.493\nsamples = 5092\nvalue = [2854, 2238]"] ;
302 -> 303 ;
304 [label="X[513] <= 0.5\ngini = 0.493\nsamples = 5091\nvalue = [2854, 2237]"] ;
303 -> 304 ;
305 [label="X[607] <= 0.5\ngini = 0.493\nsamples = 5090\nvalue = [2854, 2236]"] ;
304 -> 305 ;
306 [label="X[464] <= 0.5\ngini = 0.493\nsamples = 5089\nvalue = [2854, 2235]"] ;
305 -> 306 ;
307 [label="X[291] <= 0.5\ngini = 0.493\nsamples = 5088\nvalue = [2854, 2234]"] ;
306 -> 307 ;
308 [label="X[410] <= 0.5\ngini = 0.493\nsamples = 5087\nvalue = [2854, 2233]"] ;
307 -> 308 ;
309 [label="X[168] <= 0.5\ngini = 0.493\nsamples = 5086\nvalue = [2854, 2232]"] ;
308 -> 309 ;
310 [label="X[185] <= 0.5\ngini = 0.492\nsamples = 5085\nvalue = [2854, 2231]"] ;
309 -> 310 ;
311 [label="X[22] <= 0.5\ngini = 0.492\nsamples = 5084\nvalue = [2854, 2230]"] ;
310 -> 311 ;
312 [label="X[521] <= 0.5\ngini = 0.492\nsamples = 5083\nvalue = [2854, 2229]"] ;
311 -> 312 ;
313 [label="X[638] <= 0.5\ngini = 0.492\nsamples = 5082\nvalue = [2854, 2228]"] ;
312 -> 313 ;
314 [label="X[602] <= 0.5\ngini = 0.492\nsamples = 5081\nvalue = [2854, 2227]"] ;
313 -> 314 ;
315 [label="X[340] <= 0.5\ngini = 0.492\nsamples = 5080\nvalue = [2854, 2226]"] ;
314 -> 315 ;
316 [label="X[8] <= 0.5\ngini = 0.492\nsamples = 5079\nvalue = [2854, 2225]"] ;
315 -> 316 ;
317 [label="X[48] <= 0.5\ngini = 0.492\nsamples = 5078\nvalue = [2854, 2224]"] ;
316 -> 317 ;
318 [label="X[689] <= 0.5\ngini = 0.492\nsamples = 5077\nvalue = [2854, 2223]"] ;
317 -> 318 ;
319 [label="X[385] <= 0.5\ngini = 0.492\nsamples = 5076\nvalue = [2854, 2222]"] ;
318 -> 319 ;
320 [label="X[346] <= 0.5\ngini = 0.492\nsamples = 5075\nvalue = [2854, 2221]"] ;
319 -> 320 ;
321 [label="X[451] <= 0.5\ngini = 0.492\nsamples = 5074\nvalue = [2854, 2220]"] ;
320 -> 321 ;
322 [label="X[390] <= 0.5\ngini = 0.492\nsamples = 5073\nvalue = [2854, 2219]"] ;
321 -> 322 ;
323 [label="X[682] <= 0.5\ngini = 0.492\nsamples = 5072\nvalue = [2854, 2218]"] ;
322 -> 323 ;
324 [label="X[614] <= 0.5\ngini = 0.492\nsamples = 5071\nvalue = [2854, 2217]"] ;
323 -> 324 ;
325 [label="X[188] <= 0.5\ngini = 0.492\nsamples = 5070\nvalue = [2854, 2216]"] ;
324 -> 325 ;
326 [label="X[648] <= 0.5\ngini = 0.492\nsamples = 5069\nvalue = [2854, 2215]"] ;
325 -> 326 ;
327 [label="X[268] <= 0.5\ngini = 0.492\nsamples = 5068\nvalue = [2854, 2214]"] ;
326 -> 327 ;
328 [label="X[230] <= 0.5\ngini = 0.492\nsamples = 5062\nvalue = [2852, 2210]"] ;
327 -> 328 ;
329 [label="X[494] <= 0.5\ngini = 0.492\nsamples = 5056\nvalue = [2850, 2206]"] ;
328 -> 329 ;
330 [label="X[655] <= 0.5\ngini = 0.492\nsamples = 5055\nvalue = [2850, 2205]"] ;
329 -> 330 ;
331 [label="X[150] <= 0.5\ngini = 0.492\nsamples = 5054\nvalue = [2850, 2204]"] ;
330 -> 331 ;
332 [label="X[151] <= 0.5\ngini = 0.492\nsamples = 5053\nvalue = [2850, 2203]"] ;
331 -> 332 ;
333 [label="X[310] <= 0.5\ngini = 0.492\nsamples = 5052\nvalue = [2850, 2202]"] ;
332 -> 333 ;
334 [label="X[354] <= 0.5\ngini = 0.492\nsamples = 5051\nvalue = [2850, 2201]"] ;
333 -> 334 ;
335 [label="X[281] <= 0.5\ngini = 0.492\nsamples = 5050\nvalue = [2850, 2200]"] ;
334 -> 335 ;
336 [label="X[466] <= 0.5\ngini = 0.492\nsamples = 5049\nvalue = [2850, 2199]"] ;
335 -> 336 ;
337 [label="X[608] <= 0.5\ngini = 0.492\nsamples = 5048\nvalue = [2850, 2198]"] ;
336 -> 337 ;
338 [label="X[19] <= 0.5\ngini = 0.492\nsamples = 5047\nvalue = [2850, 2197]"] ;
337 -> 338 ;
339 [label="X[198] <= 0.5\ngini = 0.492\nsamples = 5046\nvalue = [2850, 2196]"] ;
338 -> 339 ;
340 [label="X[684] <= 0.5\ngini = 0.492\nsamples = 5045\nvalue = [2850, 2195]"] ;
339 -> 340 ;
341 [label="X[236] <= 0.5\ngini = 0.492\nsamples = 5044\nvalue = [2850, 2194]"] ;
340 -> 341 ;
342 [label="X[593] <= 0.5\ngini = 0.492\nsamples = 5043\nvalue = [2850, 2193]"] ;
341 -> 342 ;
343 [label="X[149] <= 0.5\ngini = 0.491\nsamples = 5042\nvalue = [2850, 2192]"] ;
342 -> 343 ;
344 [label="X[316] <= 0.5\ngini = 0.491\nsamples = 5041\nvalue = [2850, 2191]"] ;
343 -> 344 ;
345 [label="X[584] <= 0.5\ngini = 0.491\nsamples = 5040\nvalue = [2850, 2190]"] ;
344 -> 345 ;
346 [label="X[455] <= 0.5\ngini = 0.491\nsamples = 5039\nvalue = [2850, 2189]"] ;
345 -> 346 ;
347 [label="X[432] <= 0.5\ngini = 0.491\nsamples = 5038\nvalue = [2850, 2188]"] ;
346 -> 347 ;
348 [label="X[394] <= 0.5\ngini = 0.491\nsamples = 5037\nvalue = [2850, 2187]"] ;
347 -> 348 ;
349 [label="X[120] <= 0.5\ngini = 0.491\nsamples = 5036\nvalue = [2850, 2186]"] ;
348 -> 349 ;
350 [label="X[189] <= 0.5\ngini = 0.491\nsamples = 5035\nvalue = [2850, 2185]"] ;
349 -> 350 ;
351 [label="X[136] <= 0.5\ngini = 0.491\nsamples = 5034\nvalue = [2850, 2184]"] ;
350 -> 351 ;
352 [label="X[463] <= 0.5\ngini = 0.491\nsamples = 5033\nvalue = [2850, 2183]"] ;
351 -> 352 ;
353 [label="X[214] <= 0.5\ngini = 0.491\nsamples = 5032\nvalue = [2850, 2182]"] ;
352 -> 353 ;
354 [label="X[26] <= 0.5\ngini = 0.491\nsamples = 5031\nvalue = [2850, 2181]"] ;
353 -> 354 ;
355 [label="X[476] <= 0.5\ngini = 0.491\nsamples = 5030\nvalue = [2850, 2180]"] ;
354 -> 355 ;
356 [label="X[440] <= 0.5\ngini = 0.491\nsamples = 5029\nvalue = [2850, 2179]"] ;
355 -> 356 ;
357 [label="X[123] <= 0.5\ngini = 0.491\nsamples = 5028\nvalue = [2850, 2178]"] ;
356 -> 357 ;
358 [label="X[391] <= 0.5\ngini = 0.491\nsamples = 5020\nvalue = [2847, 2173]"] ;
357 -> 358 ;
359 [label="X[388] <= 0.5\ngini = 0.491\nsamples = 5012\nvalue = [2844, 2168]"] ;
358 -> 359 ;
360 [label="X[635] <= 0.5\ngini = 0.491\nsamples = 5000\nvalue = [2839, 2161]"] ;
359 -> 360 ;
361 [label="X[210] <= 0.5\ngini = 0.491\nsamples = 4957\nvalue = [2818, 2139]"] ;
360 -> 361 ;
362 [label="X[580] <= 0.5\ngini = 0.49\nsamples = 4579\nvalue = [2613, 1966]"] ;
361 -> 362 ;
363 [label="X[336] <= 0.5\ngini = 0.49\nsamples = 4563\nvalue = [2606, 1957]"] ;
362 -> 363 ;
364 [label="X[16] <= 0.5\ngini = 0.489\nsamples = 3998\nvalue = [2295, 1703]"] ;
363 -> 364 ;
365 [label="X[31] <= 0.5\ngini = 0.489\nsamples = 3871\nvalue = [2228, 1643]"] ;
364 -> 365 ;
366 [label="X[348] <= 0.5\ngini = 0.488\nsamples = 3427\nvalue = [1982, 1445]"] ;
365 -> 366 ;
367 [label="X[80] <= 0.5\ngini = 0.487\nsamples = 3391\nvalue = [1964, 1427]"] ;
366 -> 367 ;
368 [label="X[227] <= 0.5\ngini = 0.487\nsamples = 3359\nvalue = [1948, 1411]"] ;
367 -> 368 ;
369 [label="X[55] <= 0.5\ngini = 0.487\nsamples = 3196\nvalue = [1859, 1337]"] ;
368 -> 369 ;
370 [label="X[550] <= 0.5\ngini = 0.486\nsamples = 3166\nvalue = [1844, 1322]"] ;
369 -> 370 ;
371 [label="X[251] <= 0.5\ngini = 0.486\nsamples = 3125\nvalue = [1823, 1302]"] ;
370 -> 371 ;
372 [label="X[318] <= 0.5\ngini = 0.486\nsamples = 3112\nvalue = [1817, 1295]"] ;
371 -> 372 ;
373 [label="X[574] <= 0.5\ngini = 0.485\nsamples = 3021\nvalue = [1768, 1253]"] ;
372 -> 373 ;
374 [label="X[579] <= 0.5\ngini = 0.485\nsamples = 2984\nvalue = [1749, 1235]"] ;
373 -> 374 ;
375 [label="X[280] <= 0.5\ngini = 0.485\nsamples = 2835\nvalue = [1667, 1168]"] ;
374 -> 375 ;
376 [label="X[273] <= 0.5\ngini = 0.484\nsamples = 2653\nvalue = [1566, 1087]"] ;
375 -> 376 ;
377 [label="X[577] <= 0.5\ngini = 0.483\nsamples = 2417\nvalue = [1434, 983]"] ;
376 -> 377 ;
378 [label="X[364] <= 0.5\ngini = 0.482\nsamples = 2406\nvalue = [1429, 977]"] ;
377 -> 378 ;
379 [label="X[334] <= 0.5\ngini = 0.482\nsamples = 2403\nvalue = [1428, 975]"] ;
378 -> 379 ;
380 [label="X[312] <= 0.5\ngini = 0.482\nsamples = 2400\nvalue = [1427, 973]"] ;
379 -> 380 ;
381 [label="X[339] <= 0.5\ngini = 0.482\nsamples = 2397\nvalue = [1426, 971]"] ;
380 -> 381 ;
382 [label="X[32] <= 0.5\ngini = 0.482\nsamples = 2394\nvalue = [1425, 969]"] ;
381 -> 382 ;
383 [label="X[331] <= 0.5\ngini = 0.482\nsamples = 2391\nvalue = [1424, 967]"] ;
382 -> 383 ;
384 [label="X[224] <= 0.5\ngini = 0.482\nsamples = 2388\nvalue = [1423, 965]"] ;
383 -> 384 ;
385 [label="X[414] <= 0.5\ngini = 0.481\nsamples = 2379\nvalue = [1419, 960]"] ;
384 -> 385 ;
386 [label="X[367] <= 0.5\ngini = 0.481\nsamples = 2370\nvalue = [1415, 955]"] ;
385 -> 386 ;
387 [label="X[687] <= 0.5\ngini = 0.481\nsamples = 2361\nvalue = [1411, 950]"] ;
386 -> 387 ;
388 [label="X[304] <= 0.5\ngini = 0.481\nsamples = 2352\nvalue = [1407, 945]"] ;
387 -> 388 ;
389 [label="X[506] <= 0.5\ngini = 0.48\nsamples = 2343\nvalue = [1403, 940]"] ;
388 -> 389 ;
390 [label="X[585] <= 0.5\ngini = 0.48\nsamples = 2340\nvalue = [1402, 938]"] ;
389 -> 390 ;
391 [label="X[164] <= 0.5\ngini = 0.48\nsamples = 2337\nvalue = [1401, 936]"] ;
390 -> 391 ;
392 [label="X[39] <= 0.5\ngini = 0.48\nsamples = 2334\nvalue = [1400, 934]"] ;
391 -> 392 ;
393 [label="X[452] <= 0.5\ngini = 0.48\nsamples = 2331\nvalue = [1399, 932]"] ;
392 -> 393 ;
394 [label="X[520] <= 0.5\ngini = 0.48\nsamples = 2328\nvalue = [1398, 930]"] ;
393 -> 394 ;
395 [label="X[672] <= 0.5\ngini = 0.48\nsamples = 2325\nvalue = [1397, 928]"] ;
394 -> 395 ;
396 [label="X[594] <= 0.5\ngini = 0.48\nsamples = 2322\nvalue = [1396, 926]"] ;
395 -> 396 ;
397 [label="X[372] <= 0.5\ngini = 0.479\nsamples = 2319\nvalue = [1395, 924]"] ;
396 -> 397 ;
398 [label="X[193] <= 0.5\ngini = 0.479\nsamples = 2316\nvalue = [1394, 922]"] ;
397 -> 398 ;
399 [label="X[553] <= 0.5\ngini = 0.479\nsamples = 2313\nvalue = [1393, 920]"] ;
398 -> 399 ;
400 [label="X[413] <= 0.5\ngini = 0.478\nsamples = 2247\nvalue = [1357, 890]"] ;
399 -> 400 ;
401 [label="X[146] <= 0.5\ngini = 0.478\nsamples = 2244\nvalue = [1356, 888]"] ;
400 -> 401 ;
402 [label="X[326] <= 0.5\ngini = 0.477\nsamples = 2072\nvalue = [1258, 814]"] ;
401 -> 402 ;
403 [label="X[308] <= 0.5\ngini = 0.477\nsamples = 2069\nvalue = [1257, 812]"] ;
402 -> 403 ;
404 [label="X[425] <= 0.5\ngini = 0.477\nsamples = 2066\nvalue = [1256, 810]"] ;
403 -> 404 ;
405 [label="X[202] <= 0.5\ngini = 0.476\nsamples = 2059\nvalue = [1253, 806]"] ;
404 -> 405 ;
406 [label="X[378] <= 0.5\ngini = 0.476\nsamples = 1992\nvalue = [1216, 776]"] ;
405 -> 406 ;
407 [label="X[609] <= 0.5\ngini = 0.475\nsamples = 1925\nvalue = [1179, 746]"] ;
406 -> 407 ;
408 [label="X[347] <= 0.5\ngini = 0.474\nsamples = 1920\nvalue = [1177, 743]"] ;
407 -> 408 ;
409 [label="X[426] <= 0.5\ngini = 0.474\nsamples = 1915\nvalue = [1175, 740]"] ;
408 -> 409 ;
410 [label="X[369] <= 0.5\ngini = 0.474\nsamples = 1910\nvalue = [1173, 737]"] ;
409 -> 410 ;
411 [label="X[254] <= 0.5\ngini = 0.474\nsamples = 1905\nvalue = [1171, 734]"] ;
410 -> 411 ;
412 [label="X[697] <= 0.5\ngini = 0.473\nsamples = 1900\nvalue = [1169, 731]"] ;
411 -> 412 ;
413 [label="X[382] <= 0.5\ngini = 0.473\nsamples = 1895\nvalue = [1167, 728]"] ;
412 -> 413 ;
414 [label="X[211] <= 0.5\ngini = 0.473\nsamples = 1890\nvalue = [1165, 725]"] ;
413 -> 414 ;
415 [label="X[142] <= 0.5\ngini = 0.473\nsamples = 1885\nvalue = [1163, 722]"] ;
414 -> 415 ;
416 [label="X[403] <= 0.5\ngini = 0.472\nsamples = 1880\nvalue = [1161, 719]"] ;
415 -> 416 ;
417 [label="X[624] <= 0.5\ngini = 0.472\nsamples = 1875\nvalue = [1159, 716]"] ;
416 -> 417 ;
418 [label="X[678] <= 0.5\ngini = 0.472\nsamples = 1870\nvalue = [1157, 713]"] ;
417 -> 418 ;
419 [label="X[195] <= 0.5\ngini = 0.47\nsamples = 1687\nvalue = [1050, 637]"] ;
418 -> 419 ;
420 [label="X[306] <= 0.5\ngini = 0.468\nsamples = 1541\nvalue = [965, 576]"] ;
419 -> 420 ;
421 [label="X[486] <= 0.5\ngini = 0.467\nsamples = 1482\nvalue = [932, 550]"] ;
420 -> 421 ;
422 [label="X[302] <= 0.5\ngini = 0.466\nsamples = 1466\nvalue = [924, 542]"] ;
421 -> 422 ;
423 [label="X[60] <= 0.5\ngini = 0.465\nsamples = 1443\nvalue = [912, 531]"] ;
422 -> 423 ;
424 [label="X[263] <= 0.5\ngini = 0.464\nsamples = 1408\nvalue = [893, 515]"] ;
423 -> 424 ;
425 [label="X[511] <= 0.5\ngini = 0.463\nsamples = 1385\nvalue = [881, 504]"] ;
424 -> 425 ;
426 [label="X[223] <= 0.5\ngini = 0.462\nsamples = 1357\nvalue = [866, 491]"] ;
425 -> 426 ;
427 [label="X[217] <= 0.5\ngini = 0.461\nsamples = 1338\nvalue = [856, 482]"] ;
426 -> 427 ;
428 [label="X[99] <= 0.5\ngini = 0.46\nsamples = 1304\nvalue = [837, 467]"] ;
427 -> 428 ;
429 [label="X[377] <= 0.5\ngini = 0.458\nsamples = 1257\nvalue = [810, 447]"] ;
428 -> 429 ;
430 [label="X[349] <= 0.5\ngini = 0.457\nsamples = 1225\nvalue = [792, 433]"] ;
429 -> 430 ;
431 [label="X[25] <= 0.5\ngini = 0.455\nsamples = 1172\nvalue = [761, 411]"] ;
430 -> 431 ;
432 [label="X[576] <= 0.5\ngini = 0.454\nsamples = 1116\nvalue = [728, 388]"] ;
431 -> 432 ;
433 [label="X[51] <= 0.5\ngini = 0.452\nsamples = 1073\nvalue = [703, 370]"] ;
432 -> 433 ;
434 [label="X[537] <= 0.5\ngini = 0.45\nsamples = 1030\nvalue = [678, 352]"] ;
433 -> 434 ;
435 [label="X[623] <= 0.5\ngini = 0.449\nsamples = 1015\nvalue = [670, 345]"] ;
434 -> 435 ;
436 [label="X[353] <= 0.5\ngini = 0.448\nsamples = 1007\nvalue = [666, 341]"] ;
435 -> 436 ;
437 [label="X[204] <= 0.5\ngini = 0.447\nsamples = 999\nvalue = [662, 337]"] ;
436 -> 437 ;
438 [label="X[100] <= 0.5\ngini = 0.446\nsamples = 991\nvalue = [658, 333]"] ;
437 -> 438 ;
439 [label="X[459] <= 0.5\ngini = 0.445\nsamples = 973\nvalue = [648, 325]"] ;
438 -> 439 ;
440 [label="X[3] <= 0.5\ngini = 0.444\nsamples = 952\nvalue = [636, 316]"] ;
439 -> 440 ;
441 [label="X[625] <= 0.5\ngini = 0.443\nsamples = 946\nvalue = [633, 313]"] ;
440 -> 441 ;
442 [label="X[601] <= 0.5\ngini = 0.442\nsamples = 940\nvalue = [630, 310]"] ;
441 -> 442 ;
443 [label="X[18] <= 0.5\ngini = 0.441\nsamples = 934\nvalue = [627, 307]"] ;
442 -> 443 ;
444 [label="X[503] <= 0.5\ngini = 0.441\nsamples = 928\nvalue = [624, 304]"] ;
443 -> 444 ;
445 [label="X[386] <= 0.5\ngini = 0.439\nsamples = 917\nvalue = [618, 299]"] ;
444 -> 445 ;
446 [label="X[1] <= 0.5\ngini = 0.437\nsamples = 879\nvalue = [595, 284]"] ;
445 -> 446 ;
447 [label="X[287] <= 0.5\ngini = 0.436\nsamples = 854\nvalue = [580, 274]"] ;
446 -> 447 ;
448 [label="X[668] <= 0.5\ngini = 0.435\nsamples = 845\nvalue = [575, 270]"] ;
447 -> 448 ;
449 [label="X[596] <= 0.5\ngini = 0.434\nsamples = 841\nvalue = [573, 268]"] ;
448 -> 449 ;
450 [label="X[233] <= 0.5\ngini = 0.432\nsamples = 801\nvalue = [548, 253]"] ;
449 -> 450 ;
451 [label="X[667] <= 0.5\ngini = 0.431\nsamples = 797\nvalue = [546, 251]"] ;
450 -> 451 ;
452 [label="X[417] <= 0.5\ngini = 0.431\nsamples = 793\nvalue = [544, 249]"] ;
451 -> 452 ;
453 [label="X[27] <= 0.5\ngini = 0.43\nsamples = 789\nvalue = [542, 247]"] ;
452 -> 453 ;
454 [label="X[611] <= 0.5\ngini = 0.429\nsamples = 785\nvalue = [540, 245]"] ;
453 -> 454 ;
455 [label="X[262] <= 0.5\ngini = 0.429\nsamples = 781\nvalue = [538, 243]"] ;
454 -> 455 ;
456 [label="X[29] <= 0.5\ngini = 0.428\nsamples = 777\nvalue = [536, 241]"] ;
455 -> 456 ;
457 [label="X[485] <= 0.5\ngini = 0.427\nsamples = 773\nvalue = [534, 239]"] ;
456 -> 457 ;
458 [label="X[396] <= 0.5\ngini = 0.426\nsamples = 761\nvalue = [527, 234]"] ;
457 -> 458 ;
459 [label="X[68] <= 0.5\ngini = 0.423\nsamples = 723\nvalue = [503, 220]"] ;
458 -> 459 ;
460 [label="X[376] <= 0.5\ngini = 0.422\nsamples = 702\nvalue = [490, 212]"] ;
459 -> 460 ;
461 [label="X[597] <= 0.5\ngini = 0.42\nsamples = 678\nvalue = [475, 203]"] ;
460 -> 461 ;
462 [label="X[578] <= 0.5\ngini = 0.418\nsamples = 671\nvalue = [471, 200]"] ;
461 -> 462 ;
463 [label="X[225] <= 0.5\ngini = 0.417\nsamples = 664\nvalue = [467, 197]"] ;
462 -> 463 ;
464 [label="X[671] <= 0.5\ngini = 0.416\nsamples = 657\nvalue = [463, 194]"] ;
463 -> 464 ;
465 [label="X[90] <= 0.5\ngini = 0.415\nsamples = 647\nvalue = [457, 190]"] ;
464 -> 465 ;
466 [label="X[669] <= 0.5\ngini = 0.413\nsamples = 622\nvalue = [441, 181]"] ;
465 -> 466 ;
467 [label="X[130] <= 0.5\ngini = 0.41\nsamples = 600\nvalue = [427, 173]"] ;
466 -> 467 ;
468 [label="X[344] <= 0.5\ngini = 0.408\nsamples = 581\nvalue = [415, 166]"] ;
467 -> 468 ;
469 [label="X[341] <= 0.5\ngini = 0.406\nsamples = 565\nvalue = [405, 160]"] ;
468 -> 469 ;
470 [label="X[504] <= 0.5\ngini = 0.404\nsamples = 552\nvalue = [397, 155]"] ;
469 -> 470 ;
471 [label="X[405] <= 0.5\ngini = 0.401\nsamples = 529\nvalue = [382, 147]"] ;
470 -> 471 ;
472 [label="X[519] <= 0.5\ngini = 0.401\nsamples = 527\nvalue = [381, 146]"] ;
471 -> 472 ;
473 [label="X[497] <= 0.5\ngini = 0.4\nsamples = 525\nvalue = [380, 145]"] ;
472 -> 473 ;
474 [label="X[686] <= 0.5\ngini = 0.399\nsamples = 523\nvalue = [379, 144]"] ;
473 -> 474 ;
475 [label="X[370] <= 0.5\ngini = 0.398\nsamples = 521\nvalue = [378, 143]"] ;
474 -> 475 ;
476 [label="X[677] <= 0.5\ngini = 0.397\nsamples = 519\nvalue = [377, 142]"] ;
475 -> 476 ;
477 [label="X[98] <= 0.5\ngini = 0.397\nsamples = 517\nvalue = [376, 141]"] ;
476 -> 477 ;
478 [label="X[469] <= 0.5\ngini = 0.396\nsamples = 515\nvalue = [375, 140]"] ;
477 -> 478 ;
479 [label="X[647] <= 0.5\ngini = 0.394\nsamples = 501\nvalue = [366, 135]"] ;
478 -> 479 ;
480 [label="X[361] <= 0.5\ngini = 0.391\nsamples = 487\nvalue = [357, 130]"] ;
479 -> 480 ;
481 [label="X[97] <= 0.5\ngini = 0.389\nsamples = 473\nvalue = [348, 125]"] ;
480 -> 481 ;
482 [label="X[605] <= 0.5\ngini = 0.388\nsamples = 471\nvalue = [347, 124]"] ;
481 -> 482 ;
483 [label="X[213] <= 0.5\ngini = 0.386\nsamples = 460\nvalue = [340, 120]"] ;
482 -> 483 ;
484 [label="X[119] <= 0.5\ngini = 0.385\nsamples = 458\nvalue = [339, 119]"] ;
483 -> 484 ;
485 [label="X[564] <= 0.5\ngini = 0.384\nsamples = 456\nvalue = [338, 118]"] ;
484 -> 485 ;
486 [label="X[226] <= 0.5\ngini = 0.383\nsamples = 454\nvalue = [337, 117]"] ;
485 -> 486 ;
487 [label="X[456] <= 0.5\ngini = 0.382\nsamples = 452\nvalue = [336, 116]"] ;
486 -> 487 ;
488 [label="X[681] <= 0.5\ngini = 0.38\nsamples = 450\nvalue = [335, 115]"] ;
487 -> 488 ;
489 [label="X[600] <= 0.5\ngini = 0.379\nsamples = 448\nvalue = [334, 114]"] ;
488 -> 489 ;
490 [label="X[366] <= 0.5\ngini = 0.378\nsamples = 446\nvalue = [333, 113]"] ;
489 -> 490 ;
491 [label="X[290] <= 0.5\ngini = 0.377\nsamples = 444\nvalue = [332, 112]"] ;
490 -> 491 ;
492 [label="X[420] <= 0.5\ngini = 0.374\nsamples = 426\nvalue = [320, 106]"] ;
491 -> 492 ;
493 [label="X[108] <= 0.5\ngini = 0.373\nsamples = 424\nvalue = [319, 105]"] ;
492 -> 493 ;
494 [label="X[206] <= 0.5\ngini = 0.371\nsamples = 422\nvalue = [318, 104]"] ;
493 -> 494 ;
495 [label="X[88] <= 0.5\ngini = 0.37\nsamples = 420\nvalue = [317, 103]"] ;
494 -> 495 ;
496 [label="X[163] <= 0.5\ngini = 0.369\nsamples = 418\nvalue = [316, 102]"] ;
495 -> 496 ;
497 [label="X[103] <= 0.5\ngini = 0.368\nsamples = 416\nvalue = [315, 101]"] ;
496 -> 497 ;
498 [label="X[653] <= 0.5\ngini = 0.366\nsamples = 414\nvalue = [314, 100]"] ;
497 -> 498 ;
499 [label="X[6] <= 0.5\ngini = 0.365\nsamples = 412\nvalue = [313, 99]"] ;
498 -> 499 ;
500 [label="X[560] <= 0.5\ngini = 0.364\nsamples = 410\nvalue = [312, 98]"] ;
499 -> 500 ;
501 [label="X[289] <= 0.5\ngini = 0.36\nsamples = 395\nvalue = [302, 93]"] ;
500 -> 501 ;
502 [label="X[435] <= 0.5\ngini = 0.359\nsamples = 393\nvalue = [301, 92]"] ;
501 -> 502 ;
503 [label="X[448] <= 0.5\ngini = 0.357\nsamples = 391\nvalue = [300, 91]"] ;
502 -> 503 ;
504 [label="X[604] <= 0.5\ngini = 0.356\nsamples = 389\nvalue = [299, 90]"] ;
503 -> 504 ;
505 [label="X[218] <= 0.5\ngini = 0.354\nsamples = 387\nvalue = [298, 89]"] ;
504 -> 505 ;
506 [label="X[240] <= 0.5\ngini = 0.353\nsamples = 385\nvalue = [297, 88]"] ;
505 -> 506 ;
507 [label="X[178] <= 0.5\ngini = 0.35\nsamples = 380\nvalue = [294, 86]"] ;
506 -> 507 ;
508 [label="X[438] <= 0.5\ngini = 0.348\nsamples = 375\nvalue = [291, 84]"] ;
507 -> 508 ;
509 [label="X[253] <= 0.5\ngini = 0.345\nsamples = 370\nvalue = [288, 82]"] ;
508 -> 509 ;
510 [label="X[433] <= 0.5\ngini = 0.342\nsamples = 365\nvalue = [285, 80]"] ;
509 -> 510 ;
511 [label="X[43] <= 0.5\ngini = 0.339\nsamples = 360\nvalue = [282, 78]"] ;
510 -> 511 ;
512 [label="X[482] <= 0.5\ngini = 0.337\nsamples = 355\nvalue = [279, 76]"] ;
511 -> 512 ;
513 [label="X[592] <= 0.5\ngini = 0.332\nsamples = 343\nvalue = [271, 72]"] ;
512 -> 513 ;
514 [label="X[245] <= 0.5\ngini = 0.326\nsamples = 331\nvalue = [263, 68]"] ;
513 -> 514 ;
515 [label="X[423] <= 0.5\ngini = 0.324\nsamples = 329\nvalue = [262, 67]"] ;
514 -> 515 ;
516 [label="X[73] <= 0.5\ngini = 0.322\nsamples = 327\nvalue = [261, 66]"] ;
515 -> 516 ;
517 [label="X[559] <= 0.5\ngini = 0.32\nsamples = 325\nvalue = [260, 65]"] ;
516 -> 517 ;
518 [label="X[138] <= 0.5\ngini = 0.318\nsamples = 323\nvalue = [259, 64]"] ;
517 -> 518 ;
519 [label="X[81] <= 0.5\ngini = 0.315\nsamples = 321\nvalue = [258, 63]"] ;
518 -> 519 ;
520 [label="X[450] <= 0.5\ngini = 0.313\nsamples = 319\nvalue = [257, 62]"] ;
519 -> 520 ;
521 [label="X[411] <= 0.5\ngini = 0.311\nsamples = 317\nvalue = [256, 61]"] ;
520 -> 521 ;
522 [label="X[243] <= 0.5\ngini = 0.308\nsamples = 315\nvalue = [255, 60]"] ;
521 -> 522 ;
523 [label="X[495] <= 0.5\ngini = 0.306\nsamples = 313\nvalue = [254, 59]"] ;
522 -> 523 ;
524 [label="X[551] <= 0.5\ngini = 0.303\nsamples = 311\nvalue = [253, 58]"] ;
523 -> 524 ;
525 [label="X[145] <= 0.5\ngini = 0.298\nsamples = 302\nvalue = [247, 55]"] ;
524 -> 525 ;
526 [label="X[467] <= 0.5\ngini = 0.291\nsamples = 289\nvalue = [238, 51]"] ;
525 -> 526 ;
527 [label="X[462] <= 0.5\ngini = 0.284\nsamples = 280\nvalue = [232, 48]"] ;
526 -> 527 ;
528 [label="X[688] <= 0.5\ngini = 0.277\nsamples = 271\nvalue = [226, 45]"] ;
527 -> 528 ;
529 [label="X[311] <= 0.5\ngini = 0.269\nsamples = 262\nvalue = [220, 42]"] ;
528 -> 529 ;
530 [label="X[481] <= 0.5\ngini = 0.266\nsamples = 260\nvalue = [219, 41]"] ;
529 -> 530 ;
531 [label="X[85] <= 0.5\ngini = 0.262\nsamples = 258\nvalue = [218, 40]"] ;
530 -> 531 ;
532 [label="X[91] <= 0.5\ngini = 0.258\nsamples = 256\nvalue = [217, 39]"] ;
531 -> 532 ;
533 [label="X[62] <= 0.5\ngini = 0.254\nsamples = 254\nvalue = [216, 38]"] ;
532 -> 533 ;
534 [label="X[248] <= 0.5\ngini = 0.251\nsamples = 252\nvalue = [215, 37]"] ;
533 -> 534 ;
535 [label="X[698] <= 0.5\ngini = 0.247\nsamples = 250\nvalue = [214, 36]"] ;
534 -> 535 ;
536 [label="X[231] <= 0.5\ngini = 0.242\nsamples = 248\nvalue = [213, 35]"] ;
535 -> 536 ;
537 [label="X[657] <= 0.5\ngini = 0.233\nsamples = 238\nvalue = [206, 32]"] ;
536 -> 537 ;
538 [label="X[183] <= 0.5\ngini = 0.228\nsamples = 236\nvalue = [205, 31]"] ;
537 -> 538 ;
539 [label="X[517] <= 0.5\ngini = 0.224\nsamples = 234\nvalue = [204, 30]"] ;
538 -> 539 ;
540 [label="X[321] <= 0.5\ngini = 0.219\nsamples = 232\nvalue = [203, 29]"] ;
539 -> 540 ;
541 [label="X[508] <= 0.5\ngini = 0.214\nsamples = 230\nvalue = [202, 28]"] ;
540 -> 541 ;
542 [label="X[645] <= 0.5\ngini = 0.205\nsamples = 224\nvalue = [198, 26]"] ;
541 -> 542 ;
543 [label="X[406] <= 0.5\ngini = 0.196\nsamples = 218\nvalue = [194, 24]"] ;
542 -> 543 ;
544 [label="X[74] <= 0.5\ngini = 0.186\nsamples = 212\nvalue = [190, 22]"] ;
543 -> 544 ;
545 [label="X[693] <= 0.5\ngini = 0.175\nsamples = 206\nvalue = [186, 20]"] ;
544 -> 545 ;
546 [label="X[393] <= 0.5\ngini = 0.165\nsamples = 199\nvalue = [181, 18]"] ;
545 -> 546 ;
547 [label="X[379] <= 0.5\ngini = 0.153\nsamples = 192\nvalue = [176, 16]"] ;
546 -> 547 ;
548 [label="X[556] <= 0.5\ngini = 0.146\nsamples = 189\nvalue = [174, 15]"] ;
547 -> 548 ;
549 [label="X[173] <= 0.5\ngini = 0.139\nsamples = 186\nvalue = [172, 14]"] ;
548 -> 549 ;
550 [label="X[319] <= 0.5\ngini = 0.132\nsamples = 183\nvalue = [170, 13]"] ;
549 -> 550 ;
551 [label="X[61] <= 0.5\ngini = 0.124\nsamples = 180\nvalue = [168, 12]"] ;
550 -> 551 ;
552 [label="X[277] <= 0.5\ngini = 0.117\nsamples = 177\nvalue = [166, 11]"] ;
551 -> 552 ;
553 [label="X[322] <= 0.5\ngini = 0.108\nsamples = 174\nvalue = [164, 10]"] ;
552 -> 553 ;
554 [label="X[118] <= 0.5\ngini = 0.1\nsamples = 171\nvalue = [162, 9]"] ;
553 -> 554 ;
555 [label="X[690] <= 0.5\ngini = 0.091\nsamples = 168\nvalue = [160, 8]"] ;
554 -> 555 ;
556 [label="X[662] <= 0.5\ngini = 0.081\nsamples = 165\nvalue = [158, 7]"] ;
555 -> 556 ;
557 [label="X[350] <= 0.5\ngini = 0.071\nsamples = 162\nvalue = [156, 6]"] ;
556 -> 557 ;
558 [label="X[298] <= 0.5\ngini = 0.061\nsamples = 158\nvalue = [153, 5]"] ;
557 -> 558 ;
559 [label="X[409] <= 0.5\ngini = 0.051\nsamples = 154\nvalue = [150, 4]"] ;
558 -> 559 ;
560 [label="X[380] <= 0.5\ngini = 0.039\nsamples = 150\nvalue = [147, 3]"] ;
559 -> 560 ;
561 [label="X[619] <= 0.5\ngini = 0.027\nsamples = 146\nvalue = [144, 2]"] ;
560 -> 561 ;
562 [label="X[177] <= 0.5\ngini = 0.014\nsamples = 142\nvalue = [141, 1]"] ;
561 -> 562 ;
563 [label="gini = 0.0\nsamples = 138\nvalue = [138, 0]"] ;
562 -> 563 ;
564 [label="gini = 0.375\nsamples = 4\nvalue = [3, 1]"] ;
562 -> 564 ;
565 [label="gini = 0.375\nsamples = 4\nvalue = [3, 1]"] ;
561 -> 565 ;
566 [label="gini = 0.375\nsamples = 4\nvalue = [3, 1]"] ;
560 -> 566 ;
567 [label="gini = 0.375\nsamples = 4\nvalue = [3, 1]"] ;
559 -> 567 ;
568 [label="gini = 0.375\nsamples = 4\nvalue = [3, 1]"] ;
558 -> 568 ;
569 [label="gini = 0.375\nsamples = 4\nvalue = [3, 1]"] ;
557 -> 569 ;
570 [label="gini = 0.444\nsamples = 3\nvalue = [2, 1]"] ;
556 -> 570 ;
571 [label="gini = 0.444\nsamples = 3\nvalue = [2, 1]"] ;
555 -> 571 ;
572 [label="gini = 0.444\nsamples = 3\nvalue = [2, 1]"] ;
554 -> 572 ;
573 [label="gini = 0.444\nsamples = 3\nvalue = [2, 1]"] ;
553 -> 573 ;
574 [label="gini = 0.444\nsamples = 3\nvalue = [2, 1]"] ;
552 -> 574 ;
575 [label="gini = 0.444\nsamples = 3\nvalue = [2, 1]"] ;
551 -> 575 ;
576 [label="gini = 0.444\nsamples = 3\nvalue = [2, 1]"] ;
550 -> 576 ;
577 [label="gini = 0.444\nsamples = 3\nvalue = [2, 1]"] ;
549 -> 577 ;
578 [label="gini = 0.444\nsamples = 3\nvalue = [2, 1]"] ;
548 -> 578 ;
579 [label="gini = 0.444\nsamples = 3\nvalue = [2, 1]"] ;
547 -> 579 ;
580 [label="gini = 0.408\nsamples = 7\nvalue = [5, 2]"] ;
546 -> 580 ;
581 [label="gini = 0.408\nsamples = 7\nvalue = [5, 2]"] ;
545 -> 581 ;
582 [label="gini = 0.444\nsamples = 6\nvalue = [4, 2]"] ;
544 -> 582 ;
583 [label="gini = 0.444\nsamples = 6\nvalue = [4, 2]"] ;
543 -> 583 ;
584 [label="gini = 0.444\nsamples = 6\nvalue = [4, 2]"] ;
542 -> 584 ;
585 [label="gini = 0.444\nsamples = 6\nvalue = [4, 2]"] ;
541 -> 585 ;
586 [label="gini = 0.5\nsamples = 2\nvalue = [1, 1]"] ;
540 -> 586 ;
587 [label="gini = 0.5\nsamples = 2\nvalue = [1, 1]"] ;
539 -> 587 ;
588 [label="gini = 0.5\nsamples = 2\nvalue = [1, 1]"] ;
538 -> 588 ;
589 [label="gini = 0.5\nsamples = 2\nvalue = [1, 1]"] ;
537 -> 589 ;
590 [label="gini = 0.42\nsamples = 10\nvalue = [7, 3]"] ;
536 -> 590 ;
591 [label="gini = 0.5\nsamples = 2\nvalue = [1, 1]"] ;
535 -> 591 ;
592 [label="gini = 0.5\nsamples = 2\nvalue = [1, 1]"] ;
534 -> 592 ;
593 [label="gini = 0.5\nsamples = 2\nvalue = [1, 1]"] ;
533 -> 593 ;
594 [label="gini = 0.5\nsamples = 2\nvalue = [1, 1]"] ;
532 -> 594 ;
595 [label="gini = 0.5\nsamples = 2\nvalue = [1, 1]"] ;
531 -> 595 ;
596 [label="gini = 0.5\nsamples = 2\nvalue = [1, 1]"] ;
530 -> 596 ;
597 [label="gini = 0.5\nsamples = 2\nvalue = [1, 1]"] ;
529 -> 597 ;
598 [label="gini = 0.444\nsamples = 9\nvalue = [6, 3]"] ;
528 -> 598 ;
599 [label="gini = 0.444\nsamples = 9\nvalue = [6, 3]"] ;
527 -> 599 ;
600 [label="gini = 0.444\nsamples = 9\nvalue = [6, 3]"] ;
526 -> 600 ;
601 [label="gini = 0.426\nsamples = 13\nvalue = [9, 4]"] ;
525 -> 601 ;
602 [label="gini = 0.444\nsamples = 9\nvalue = [6, 3]"] ;
524 -> 602 ;
603 [label="gini = 0.5\nsamples = 2\nvalue = [1, 1]"] ;
523 -> 603 ;
604 [label="gini = 0.5\nsamples = 2\nvalue = [1, 1]"] ;
522 -> 604 ;
605 [label="gini = 0.5\nsamples = 2\nvalue = [1, 1]"] ;
521 -> 605 ;
606 [label="gini = 0.5\nsamples = 2\nvalue = [1, 1]"] ;
520 -> 606 ;
607 [label="gini = 0.5\nsamples = 2\nvalue = [1, 1]"] ;
519 -> 607 ;
608 [label="gini = 0.5\nsamples = 2\nvalue = [1, 1]"] ;
518 -> 608 ;
609 [label="gini = 0.5\nsamples = 2\nvalue = [1, 1]"] ;
517 -> 609 ;
610 [label="gini = 0.5\nsamples = 2\nvalue = [1, 1]"] ;
516 -> 610 ;
611 [label="gini = 0.5\nsamples = 2\nvalue = [1, 1]"] ;
515 -> 611 ;
612 [label="gini = 0.5\nsamples = 2\nvalue = [1, 1]"] ;
514 -> 612 ;
613 [label="gini = 0.444\nsamples = 12\nvalue = [8, 4]"] ;
513 -> 613 ;
614 [label="gini = 0.444\nsamples = 12\nvalue = [8, 4]"] ;
512 -> 614 ;
615 [label="gini = 0.48\nsamples = 5\nvalue = [3, 2]"] ;
511 -> 615 ;
616 [label="gini = 0.48\nsamples = 5\nvalue = [3, 2]"] ;
510 -> 616 ;
617 [label="gini = 0.48\nsamples = 5\nvalue = [3, 2]"] ;
509 -> 617 ;
618 [label="gini = 0.48\nsamples = 5\nvalue = [3, 2]"] ;
508 -> 618 ;
619 [label="gini = 0.48\nsamples = 5\nvalue = [3, 2]"] ;
507 -> 619 ;
620 [label="gini = 0.48\nsamples = 5\nvalue = [3, 2]"] ;
506 -> 620 ;
621 [label="gini = 0.5\nsamples = 2\nvalue = [1, 1]"] ;
505 -> 621 ;
622 [label="gini = 0.5\nsamples = 2\nvalue = [1, 1]"] ;
504 -> 622 ;
623 [label="gini = 0.5\nsamples = 2\nvalue = [1, 1]"] ;
503 -> 623 ;
624 [label="gini = 0.5\nsamples = 2\nvalue = [1, 1]"] ;
502 -> 624 ;
625 [label="gini = 0.5\nsamples = 2\nvalue = [1, 1]"] ;
501 -> 625 ;
626 [label="gini = 0.444\nsamples = 15\nvalue = [10, 5]"] ;
500 -> 626 ;
627 [label="gini = 0.5\nsamples = 2\nvalue = [1, 1]"] ;
499 -> 627 ;
628 [label="gini = 0.5\nsamples = 2\nvalue = [1, 1]"] ;
498 -> 628 ;
629 [label="gini = 0.5\nsamples = 2\nvalue = [1, 1]"] ;
497 -> 629 ;
630 [label="gini = 0.5\nsamples = 2\nvalue = [1, 1]"] ;
496 -> 630 ;
631 [label="gini = 0.5\nsamples = 2\nvalue = [1, 1]"] ;
495 -> 631 ;
632 [label="gini = 0.5\nsamples = 2\nvalue = [1, 1]"] ;
494 -> 632 ;
633 [label="gini = 0.5\nsamples = 2\nvalue = [1, 1]"] ;
493 -> 633 ;
634 [label="gini = 0.5\nsamples = 2\nvalue = [1, 1]"] ;
492 -> 634 ;
635 [label="gini = 0.444\nsamples = 18\nvalue = [12, 6]"] ;
491 -> 635 ;
636 [label="gini = 0.5\nsamples = 2\nvalue = [1, 1]"] ;
490 -> 636 ;
637 [label="gini = 0.5\nsamples = 2\nvalue = [1, 1]"] ;
489 -> 637 ;
638 [label="gini = 0.5\nsamples = 2\nvalue = [1, 1]"] ;
488 -> 638 ;
639 [label="gini = 0.5\nsamples = 2\nvalue = [1, 1]"] ;
487 -> 639 ;
640 [label="gini = 0.5\nsamples = 2\nvalue = [1, 1]"] ;
486 -> 640 ;
641 [label="gini = 0.5\nsamples = 2\nvalue = [1, 1]"] ;
485 -> 641 ;
642 [label="gini = 0.5\nsamples = 2\nvalue = [1, 1]"] ;
484 -> 642 ;
643 [label="gini = 0.5\nsamples = 2\nvalue = [1, 1]"] ;
483 -> 643 ;
644 [label="gini = 0.463\nsamples = 11\nvalue = [7, 4]"] ;
482 -> 644 ;
645 [label="gini = 0.5\nsamples = 2\nvalue = [1, 1]"] ;
481 -> 645 ;
646 [label="gini = 0.459\nsamples = 14\nvalue = [9, 5]"] ;
480 -> 646 ;
647 [label="gini = 0.459\nsamples = 14\nvalue = [9, 5]"] ;
479 -> 647 ;
648 [label="gini = 0.459\nsamples = 14\nvalue = [9, 5]"] ;
478 -> 648 ;
649 [label="gini = 0.5\nsamples = 2\nvalue = [1, 1]"] ;
477 -> 649 ;
650 [label="gini = 0.5\nsamples = 2\nvalue = [1, 1]"] ;
476 -> 650 ;
651 [label="gini = 0.5\nsamples = 2\nvalue = [1, 1]"] ;
475 -> 651 ;
652 [label="gini = 0.5\nsamples = 2\nvalue = [1, 1]"] ;
474 -> 652 ;
653 [label="gini = 0.5\nsamples = 2\nvalue = [1, 1]"] ;
473 -> 653 ;
654 [label="gini = 0.5\nsamples = 2\nvalue = [1, 1]"] ;
472 -> 654 ;
655 [label="gini = 0.5\nsamples = 2\nvalue = [1, 1]"] ;
471 -> 655 ;
656 [label="gini = 0.454\nsamples = 23\nvalue = [15, 8]"] ;
470 -> 656 ;
657 [label="gini = 0.473\nsamples = 13\nvalue = [8, 5]"] ;
469 -> 657 ;
658 [label="gini = 0.469\nsamples = 16\nvalue = [10, 6]"] ;
468 -> 658 ;
659 [label="gini = 0.465\nsamples = 19\nvalue = [12, 7]"] ;
467 -> 659 ;
660 [label="gini = 0.463\nsamples = 22\nvalue = [14, 8]"] ;
466 -> 660 ;
661 [label="gini = 0.461\nsamples = 25\nvalue = [16, 9]"] ;
465 -> 661 ;
662 [label="gini = 0.48\nsamples = 10\nvalue = [6, 4]"] ;
464 -> 662 ;
663 [label="gini = 0.49\nsamples = 7\nvalue = [4, 3]"] ;
463 -> 663 ;
664 [label="gini = 0.49\nsamples = 7\nvalue = [4, 3]"] ;
462 -> 664 ;
665 [label="gini = 0.49\nsamples = 7\nvalue = [4, 3]"] ;
461 -> 665 ;
666 [label="gini = 0.469\nsamples = 24\nvalue = [15, 9]"] ;
460 -> 666 ;
667 [label="gini = 0.472\nsamples = 21\nvalue = [13, 8]"] ;
459 -> 667 ;
668 [label="gini = 0.465\nsamples = 38\nvalue = [24, 14]"] ;
458 -> 668 ;
669 [label="gini = 0.486\nsamples = 12\nvalue = [7, 5]"] ;
457 -> 669 ;
670 [label="gini = 0.5\nsamples = 4\nvalue = [2, 2]"] ;
456 -> 670 ;
671 [label="gini = 0.5\nsamples = 4\nvalue = [2, 2]"] ;
455 -> 671 ;
672 [label="gini = 0.5\nsamples = 4\nvalue = [2, 2]"] ;
454 -> 672 ;
673 [label="gini = 0.5\nsamples = 4\nvalue = [2, 2]"] ;
453 -> 673 ;
674 [label="gini = 0.5\nsamples = 4\nvalue = [2, 2]"] ;
452 -> 674 ;
675 [label="gini = 0.5\nsamples = 4\nvalue = [2, 2]"] ;
451 -> 675 ;
676 [label="gini = 0.5\nsamples = 4\nvalue = [2, 2]"] ;
450 -> 676 ;
677 [label="gini = 0.469\nsamples = 40\nvalue = [25, 15]"] ;
449 -> 677 ;
678 [label="gini = 0.5\nsamples = 4\nvalue = [2, 2]"] ;
448 -> 678 ;
679 [label="gini = 0.494\nsamples = 9\nvalue = [5, 4]"] ;
447 -> 679 ;
680 [label="gini = 0.48\nsamples = 25\nvalue = [15, 10]"] ;
446 -> 680 ;
681 [label="gini = 0.478\nsamples = 38\nvalue = [23, 15]"] ;
445 -> 681 ;
682 [label="gini = 0.496\nsamples = 11\nvalue = [6, 5]"] ;
444 -> 682 ;
683 [label="gini = 0.5\nsamples = 6\nvalue = [3, 3]"] ;
443 -> 683 ;
684 [label="gini = 0.5\nsamples = 6\nvalue = [3, 3]"] ;
442 -> 684 ;
685 [label="gini = 0.5\nsamples = 6\nvalue = [3, 3]"] ;
441 -> 685 ;
686 [label="gini = 0.5\nsamples = 6\nvalue = [3, 3]"] ;
440 -> 686 ;
687 [label="gini = 0.49\nsamples = 21\nvalue = [12, 9]"] ;
439 -> 687 ;
688 [label="gini = 0.494\nsamples = 18\nvalue = [10, 8]"] ;
438 -> 688 ;
689 [label="gini = 0.5\nsamples = 8\nvalue = [4, 4]"] ;
437 -> 689 ;
690 [label="gini = 0.5\nsamples = 8\nvalue = [4, 4]"] ;
436 -> 690 ;
691 [label="gini = 0.5\nsamples = 8\nvalue = [4, 4]"] ;
435 -> 691 ;
692 [label="gini = 0.498\nsamples = 15\nvalue = [8, 7]"] ;
434 -> 692 ;
693 [label="gini = 0.487\nsamples = 43\nvalue = [25, 18]"] ;
433 -> 693 ;
694 [label="gini = 0.487\nsamples = 43\nvalue = [25, 18]"] ;
432 -> 694 ;
695 [label="gini = 0.484\nsamples = 56\nvalue = [33, 23]"] ;
431 -> 695 ;
696 [label="gini = 0.486\nsamples = 53\nvalue = [31, 22]"] ;
430 -> 696 ;
697 [label="gini = 0.492\nsamples = 32\nvalue = [18, 14]"] ;
429 -> 697 ;
698 [label="gini = 0.489\nsamples = 47\nvalue = [27, 20]"] ;
428 -> 698 ;
699 [label="gini = 0.493\nsamples = 34\nvalue = [19, 15]"] ;
427 -> 699 ;
700 [label="gini = 0.499\nsamples = 19\nvalue = [10, 9]"] ;
426 -> 700 ;
701 [label="gini = 0.497\nsamples = 28\nvalue = [15, 13]"] ;
425 -> 701 ;
702 [label="gini = 0.499\nsamples = 23\nvalue = [12, 11]"] ;
424 -> 702 ;
703 [label="gini = 0.496\nsamples = 35\nvalue = [19, 16]"] ;
423 -> 703 ;
704 [label="gini = 0.499\nsamples = 23\nvalue = [12, 11]"] ;
422 -> 704 ;
705 [label="gini = 0.5\nsamples = 16\nvalue = [8, 8]"] ;
421 -> 705 ;
706 [label="gini = 0.493\nsamples = 59\nvalue = [33, 26]"] ;
420 -> 706 ;
707 [label="gini = 0.486\nsamples = 146\nvalue = [85, 61]"] ;
419 -> 707 ;
708 [label="gini = 0.486\nsamples = 183\nvalue = [107, 76]"] ;
418 -> 708 ;
709 [label="gini = 0.48\nsamples = 5\nvalue = [2, 3]"] ;
417 -> 709 ;
710 [label="gini = 0.48\nsamples = 5\nvalue = [2, 3]"] ;
416 -> 710 ;
711 [label="gini = 0.48\nsamples = 5\nvalue = [2, 3]"] ;
415 -> 711 ;
712 [label="gini = 0.48\nsamples = 5\nvalue = [2, 3]"] ;
414 -> 712 ;
713 [label="gini = 0.48\nsamples = 5\nvalue = [2, 3]"] ;
413 -> 713 ;
714 [label="gini = 0.48\nsamples = 5\nvalue = [2, 3]"] ;
412 -> 714 ;
715 [label="gini = 0.48\nsamples = 5\nvalue = [2, 3]"] ;
411 -> 715 ;
716 [label="gini = 0.48\nsamples = 5\nvalue = [2, 3]"] ;
410 -> 716 ;
717 [label="gini = 0.48\nsamples = 5\nvalue = [2, 3]"] ;
409 -> 717 ;
718 [label="gini = 0.48\nsamples = 5\nvalue = [2, 3]"] ;
408 -> 718 ;
719 [label="gini = 0.48\nsamples = 5\nvalue = [2, 3]"] ;
407 -> 719 ;
720 [label="gini = 0.495\nsamples = 67\nvalue = [37, 30]"] ;
406 -> 720 ;
721 [label="gini = 0.495\nsamples = 67\nvalue = [37, 30]"] ;
405 -> 721 ;
722 [label="gini = 0.49\nsamples = 7\nvalue = [3, 4]"] ;
404 -> 722 ;
723 [label="gini = 0.444\nsamples = 3\nvalue = [1, 2]"] ;
403 -> 723 ;
724 [label="gini = 0.444\nsamples = 3\nvalue = [1, 2]"] ;
402 -> 724 ;
725 [label="gini = 0.49\nsamples = 172\nvalue = [98, 74]"] ;
401 -> 725 ;
726 [label="gini = 0.444\nsamples = 3\nvalue = [1, 2]"] ;
400 -> 726 ;
727 [label="gini = 0.496\nsamples = 66\nvalue = [36, 30]"] ;
399 -> 727 ;
728 [label="gini = 0.444\nsamples = 3\nvalue = [1, 2]"] ;
398 -> 728 ;
729 [label="gini = 0.444\nsamples = 3\nvalue = [1, 2]"] ;
397 -> 729 ;
730 [label="gini = 0.444\nsamples = 3\nvalue = [1, 2]"] ;
396 -> 730 ;
731 [label="gini = 0.444\nsamples = 3\nvalue = [1, 2]"] ;
395 -> 731 ;
732 [label="gini = 0.444\nsamples = 3\nvalue = [1, 2]"] ;
394 -> 732 ;
733 [label="gini = 0.444\nsamples = 3\nvalue = [1, 2]"] ;
393 -> 733 ;
734 [label="gini = 0.444\nsamples = 3\nvalue = [1, 2]"] ;
392 -> 734 ;
735 [label="gini = 0.444\nsamples = 3\nvalue = [1, 2]"] ;
391 -> 735 ;
736 [label="gini = 0.444\nsamples = 3\nvalue = [1, 2]"] ;
390 -> 736 ;
737 [label="gini = 0.444\nsamples = 3\nvalue = [1, 2]"] ;
389 -> 737 ;
738 [label="gini = 0.494\nsamples = 9\nvalue = [4, 5]"] ;
388 -> 738 ;
739 [label="gini = 0.494\nsamples = 9\nvalue = [4, 5]"] ;
387 -> 739 ;
740 [label="gini = 0.494\nsamples = 9\nvalue = [4, 5]"] ;
386 -> 740 ;
741 [label="gini = 0.494\nsamples = 9\nvalue = [4, 5]"] ;
385 -> 741 ;
742 [label="gini = 0.494\nsamples = 9\nvalue = [4, 5]"] ;
384 -> 742 ;
743 [label="gini = 0.444\nsamples = 3\nvalue = [1, 2]"] ;
383 -> 743 ;
744 [label="gini = 0.444\nsamples = 3\nvalue = [1, 2]"] ;
382 -> 744 ;
745 [label="gini = 0.444\nsamples = 3\nvalue = [1, 2]"] ;
381 -> 745 ;
746 [label="gini = 0.444\nsamples = 3\nvalue = [1, 2]"] ;
380 -> 746 ;
747 [label="gini = 0.444\nsamples = 3\nvalue = [1, 2]"] ;
379 -> 747 ;
748 [label="gini = 0.444\nsamples = 3\nvalue = [1, 2]"] ;
378 -> 748 ;
749 [label="gini = 0.496\nsamples = 11\nvalue = [5, 6]"] ;
377 -> 749 ;
750 [label="gini = 0.493\nsamples = 236\nvalue = [132, 104]"] ;
376 -> 750 ;
751 [label="gini = 0.494\nsamples = 182\nvalue = [101, 81]"] ;
375 -> 751 ;
752 [label="gini = 0.495\nsamples = 149\nvalue = [82, 67]"] ;
374 -> 752 ;
753 [label="gini = 0.5\nsamples = 37\nvalue = [19, 18]"] ;
373 -> 753 ;
754 [label="gini = 0.497\nsamples = 91\nvalue = [49, 42]"] ;
372 -> 754 ;
755 [label="gini = 0.497\nsamples = 13\nvalue = [6, 7]"] ;
371 -> 755 ;
756 [label="gini = 0.5\nsamples = 41\nvalue = [21, 20]"] ;
370 -> 756 ;
757 [label="gini = 0.5\nsamples = 30\nvalue = [15, 15]"] ;
369 -> 757 ;
758 [label="gini = 0.496\nsamples = 163\nvalue = [89, 74]"] ;
368 -> 758 ;
759 [label="gini = 0.5\nsamples = 32\nvalue = [16, 16]"] ;
367 -> 759 ;
760 [label="gini = 0.5\nsamples = 36\nvalue = [18, 18]"] ;
366 -> 760 ;
761 [label="gini = 0.494\nsamples = 444\nvalue = [246, 198]"] ;
365 -> 761 ;
762 [label="gini = 0.498\nsamples = 127\nvalue = [67, 60]"] ;
364 -> 762 ;
763 [label="gini = 0.495\nsamples = 565\nvalue = [311, 254]"] ;
363 -> 763 ;
764 [label="gini = 0.492\nsamples = 16\nvalue = [7, 9]"] ;
362 -> 764 ;
765 [label="gini = 0.496\nsamples = 378\nvalue = [205, 173]"] ;
361 -> 765 ;
766 [label="gini = 0.5\nsamples = 43\nvalue = [21, 22]"] ;
360 -> 766 ;
767 [label="gini = 0.486\nsamples = 12\nvalue = [5, 7]"] ;
359 -> 767 ;
768 [label="gini = 0.469\nsamples = 8\nvalue = [3, 5]"] ;
358 -> 768 ;
769 [label="gini = 0.469\nsamples = 8\nvalue = [3, 5]"] ;
357 -> 769 ;
770 [label="gini = 0.0\nsamples = 1\nvalue = [0, 1]"] ;
356 -> 770 ;
771 [label="gini = 0.0\nsamples = 1\nvalue = [0, 1]"] ;
355 -> 771 ;
772 [label="gini = 0.0\nsamples = 1\nvalue = [0, 1]"] ;
354 -> 772 ;
773 [label="gini = 0.0\nsamples = 1\nvalue = [0, 1]"] ;
353 -> 773 ;
774 [label="gini = 0.0\nsamples = 1\nvalue = [0, 1]"] ;
352 -> 774 ;
775 [label="gini = 0.0\nsamples = 1\nvalue = [0, 1]"] ;
351 -> 775 ;
776 [label="gini = 0.0\nsamples = 1\nvalue = [0, 1]"] ;
350 -> 776 ;
777 [label="gini = 0.0\nsamples = 1\nvalue = [0, 1]"] ;
349 -> 777 ;
778 [label="gini = 0.0\nsamples = 1\nvalue = [0, 1]"] ;
348 -> 778 ;
779 [label="gini = 0.0\nsamples = 1\nvalue = [0, 1]"] ;
347 -> 779 ;
780 [label="gini = 0.0\nsamples = 1\nvalue = [0, 1]"] ;
346 -> 780 ;
781 [label="gini = 0.0\nsamples = 1\nvalue = [0, 1]"] ;
345 -> 781 ;
782 [label="gini = 0.0\nsamples = 1\nvalue = [0, 1]"] ;
344 -> 782 ;
783 [label="gini = 0.0\nsamples = 1\nvalue = [0, 1]"] ;
343 -> 783 ;
784 [label="gini = 0.0\nsamples = 1\nvalue = [0, 1]"] ;
342 -> 784 ;
785 [label="gini = 0.0\nsamples = 1\nvalue = [0, 1]"] ;
341 -> 785 ;
786 [label="gini = 0.0\nsamples = 1\nvalue = [0, 1]"] ;
340 -> 786 ;
787 [label="gini = 0.0\nsamples = 1\nvalue = [0, 1]"] ;
339 -> 787 ;
788 [label="gini = 0.0\nsamples = 1\nvalue = [0, 1]"] ;
338 -> 788 ;
789 [label="gini = 0.0\nsamples = 1\nvalue = [0, 1]"] ;
337 -> 789 ;
790 [label="gini = 0.0\nsamples = 1\nvalue = [0, 1]"] ;
336 -> 790 ;
791 [label="gini = 0.0\nsamples = 1\nvalue = [0, 1]"] ;
335 -> 791 ;
792 [label="gini = 0.0\nsamples = 1\nvalue = [0, 1]"] ;
334 -> 792 ;
793 [label="gini = 0.0\nsamples = 1\nvalue = [0, 1]"] ;
333 -> 793 ;
794 [label="gini = 0.0\nsamples = 1\nvalue = [0, 1]"] ;
332 -> 794 ;
795 [label="gini = 0.0\nsamples = 1\nvalue = [0, 1]"] ;
331 -> 795 ;
796 [label="gini = 0.0\nsamples = 1\nvalue = [0, 1]"] ;
330 -> 796 ;
797 [label="gini = 0.0\nsamples = 1\nvalue = [0, 1]"] ;
329 -> 797 ;
798 [label="gini = 0.444\nsamples = 6\nvalue = [2, 4]"] ;
328 -> 798 ;
799 [label="gini = 0.444\nsamples = 6\nvalue = [2, 4]"] ;
327 -> 799 ;
800 [label="gini = 0.0\nsamples = 1\nvalue = [0, 1]"] ;
326 -> 800 ;
801 [label="gini = 0.0\nsamples = 1\nvalue = [0, 1]"] ;
325 -> 801 ;
802 [label="gini = 0.0\nsamples = 1\nvalue = [0, 1]"] ;
324 -> 802 ;
803 [label="gini = 0.0\nsamples = 1\nvalue = [0, 1]"] ;
323 -> 803 ;
804 [label="gini = 0.0\nsamples = 1\nvalue = [0, 1]"] ;
322 -> 804 ;
805 [label="gini = 0.0\nsamples = 1\nvalue = [0, 1]"] ;
321 -> 805 ;
806 [label="gini = 0.0\nsamples = 1\nvalue = [0, 1]"] ;
320 -> 806 ;
807 [label="gini = 0.0\nsamples = 1\nvalue = [0, 1]"] ;
319 -> 807 ;
808 [label="gini = 0.0\nsamples = 1\nvalue = [0, 1]"] ;
318 -> 808 ;
809 [label="gini = 0.0\nsamples = 1\nvalue = [0, 1]"] ;
317 -> 809 ;
810 [label="gini = 0.0\nsamples = 1\nvalue = [0, 1]"] ;
316 -> 810 ;
811 [label="gini = 0.0\nsamples = 1\nvalue = [0, 1]"] ;
315 -> 811 ;
812 [label="gini = 0.0\nsamples = 1\nvalue = [0, 1]"] ;
314 -> 812 ;
813 [label="gini = 0.0\nsamples = 1\nvalue = [0, 1]"] ;
313 -> 813 ;
814 [label="gini = 0.0\nsamples = 1\nvalue = [0, 1]"] ;
312 -> 814 ;
815 [label="gini = 0.0\nsamples = 1\nvalue = [0, 1]"] ;
311 -> 815 ;
816 [label="gini = 0.0\nsamples = 1\nvalue = [0, 1]"] ;
310 -> 816 ;
817 [label="gini = 0.0\nsamples = 1\nvalue = [0, 1]"] ;
309 -> 817 ;
818 [label="gini = 0.0\nsamples = 1\nvalue = [0, 1]"] ;
308 -> 818 ;
819 [label="gini = 0.0\nsamples = 1\nvalue = [0, 1]"] ;
307 -> 819 ;
820 [label="gini = 0.0\nsamples = 1\nvalue = [0, 1]"] ;
306 -> 820 ;
821 [label="gini = 0.0\nsamples = 1\nvalue = [0, 1]"] ;
305 -> 821 ;
822 [label="gini = 0.0\nsamples = 1\nvalue = [0, 1]"] ;
304 -> 822 ;
823 [label="gini = 0.0\nsamples = 1\nvalue = [0, 1]"] ;
303 -> 823 ;
824 [label="gini = 0.0\nsamples = 1\nvalue = [0, 1]"] ;
302 -> 824 ;
825 [label="gini = 0.0\nsamples = 1\nvalue = [0, 1]"] ;
301 -> 825 ;
826 [label="gini = 0.0\nsamples = 1\nvalue = [0, 1]"] ;
300 -> 826 ;
827 [label="gini = 0.0\nsamples = 1\nvalue = [0, 1]"] ;
299 -> 827 ;
828 [label="gini = 0.0\nsamples = 1\nvalue = [0, 1]"] ;
298 -> 828 ;
829 [label="gini = 0.0\nsamples = 1\nvalue = [0, 1]"] ;
297 -> 829 ;
830 [label="gini = 0.0\nsamples = 1\nvalue = [0, 1]"] ;
296 -> 830 ;
831 [label="gini = 0.0\nsamples = 1\nvalue = [0, 1]"] ;
295 -> 831 ;
832 [label="gini = 0.0\nsamples = 1\nvalue = [0, 1]"] ;
294 -> 832 ;
833 [label="gini = 0.0\nsamples = 1\nvalue = [0, 1]"] ;
293 -> 833 ;
834 [label="gini = 0.0\nsamples = 1\nvalue = [0, 1]"] ;
292 -> 834 ;
835 [label="gini = 0.0\nsamples = 1\nvalue = [0, 1]"] ;
291 -> 835 ;
836 [label="gini = 0.0\nsamples = 1\nvalue = [0, 1]"] ;
290 -> 836 ;
837 [label="gini = 0.0\nsamples = 1\nvalue = [0, 1]"] ;
289 -> 837 ;
838 [label="gini = 0.0\nsamples = 1\nvalue = [0, 1]"] ;
288 -> 838 ;
839 [label="gini = 0.0\nsamples = 1\nvalue = [0, 1]"] ;
287 -> 839 ;
840 [label="gini = 0.0\nsamples = 1\nvalue = [0, 1]"] ;
286 -> 840 ;
841 [label="gini = 0.0\nsamples = 1\nvalue = [0, 1]"] ;
285 -> 841 ;
842 [label="gini = 0.0\nsamples = 1\nvalue = [0, 1]"] ;
284 -> 842 ;
843 [label="gini = 0.0\nsamples = 1\nvalue = [0, 1]"] ;
283 -> 843 ;
844 [label="gini = 0.0\nsamples = 1\nvalue = [0, 1]"] ;
282 -> 844 ;
845 [label="gini = 0.0\nsamples = 1\nvalue = [0, 1]"] ;
281 -> 845 ;
846 [label="gini = 0.0\nsamples = 1\nvalue = [0, 1]"] ;
280 -> 846 ;
847 [label="gini = 0.0\nsamples = 1\nvalue = [0, 1]"] ;
279 -> 847 ;
848 [label="gini = 0.0\nsamples = 1\nvalue = [0, 1]"] ;
278 -> 848 ;
849 [label="gini = 0.0\nsamples = 1\nvalue = [0, 1]"] ;
277 -> 849 ;
850 [label="gini = 0.0\nsamples = 1\nvalue = [0, 1]"] ;
276 -> 850 ;
851 [label="gini = 0.0\nsamples = 1\nvalue = [0, 1]"] ;
275 -> 851 ;
852 [label="gini = 0.0\nsamples = 1\nvalue = [0, 1]"] ;
274 -> 852 ;
853 [label="gini = 0.0\nsamples = 1\nvalue = [0, 1]"] ;
273 -> 853 ;
854 [label="gini = 0.0\nsamples = 1\nvalue = [0, 1]"] ;
272 -> 854 ;
855 [label="gini = 0.0\nsamples = 1\nvalue = [0, 1]"] ;
271 -> 855 ;
856 [label="gini = 0.0\nsamples = 1\nvalue = [0, 1]"] ;
270 -> 856 ;
857 [label="gini = 0.0\nsamples = 1\nvalue = [0, 1]"] ;
269 -> 857 ;
858 [label="gini = 0.0\nsamples = 1\nvalue = [0, 1]"] ;
268 -> 858 ;
859 [label="gini = 0.0\nsamples = 1\nvalue = [0, 1]"] ;
267 -> 859 ;
860 [label="gini = 0.0\nsamples = 1\nvalue = [0, 1]"] ;
266 -> 860 ;
861 [label="gini = 0.0\nsamples = 1\nvalue = [0, 1]"] ;
265 -> 861 ;
862 [label="gini = 0.0\nsamples = 1\nvalue = [0, 1]"] ;
264 -> 862 ;
863 [label="gini = 0.0\nsamples = 1\nvalue = [0, 1]"] ;
263 -> 863 ;
864 [label="gini = 0.0\nsamples = 1\nvalue = [0, 1]"] ;
262 -> 864 ;
865 [label="gini = 0.0\nsamples = 1\nvalue = [0, 1]"] ;
261 -> 865 ;
866 [label="gini = 0.0\nsamples = 1\nvalue = [0, 1]"] ;
260 -> 866 ;
867 [label="gini = 0.0\nsamples = 1\nvalue = [0, 1]"] ;
259 -> 867 ;
868 [label="gini = 0.0\nsamples = 1\nvalue = [0, 1]"] ;
258 -> 868 ;
869 [label="gini = 0.0\nsamples = 1\nvalue = [0, 1]"] ;
257 -> 869 ;
870 [label="gini = 0.0\nsamples = 1\nvalue = [0, 1]"] ;
256 -> 870 ;
871 [label="gini = 0.0\nsamples = 1\nvalue = [0, 1]"] ;
255 -> 871 ;
872 [label="gini = 0.0\nsamples = 1\nvalue = [0, 1]"] ;
254 -> 872 ;
873 [label="gini = 0.0\nsamples = 1\nvalue = [0, 1]"] ;
253 -> 873 ;
874 [label="gini = 0.0\nsamples = 1\nvalue = [0, 1]"] ;
252 -> 874 ;
875 [label="gini = 0.0\nsamples = 1\nvalue = [0, 1]"] ;
251 -> 875 ;
876 [label="gini = 0.0\nsamples = 1\nvalue = [0, 1]"] ;
250 -> 876 ;
877 [label="gini = 0.0\nsamples = 1\nvalue = [0, 1]"] ;
249 -> 877 ;
878 [label="gini = 0.0\nsamples = 1\nvalue = [0, 1]"] ;
248 -> 878 ;
879 [label="gini = 0.0\nsamples = 1\nvalue = [0, 1]"] ;
247 -> 879 ;
880 [label="gini = 0.0\nsamples = 1\nvalue = [0, 1]"] ;
246 -> 880 ;
881 [label="gini = 0.0\nsamples = 1\nvalue = [0, 1]"] ;
245 -> 881 ;
882 [label="gini = 0.0\nsamples = 1\nvalue = [0, 1]"] ;
244 -> 882 ;
883 [label="gini = 0.0\nsamples = 1\nvalue = [0, 1]"] ;
243 -> 883 ;
884 [label="gini = 0.0\nsamples = 1\nvalue = [0, 1]"] ;
242 -> 884 ;
885 [label="gini = 0.0\nsamples = 1\nvalue = [0, 1]"] ;
241 -> 885 ;
886 [label="gini = 0.0\nsamples = 1\nvalue = [0, 1]"] ;
240 -> 886 ;
887 [label="gini = 0.0\nsamples = 1\nvalue = [0, 1]"] ;
239 -> 887 ;
888 [label="gini = 0.0\nsamples = 1\nvalue = [0, 1]"] ;
238 -> 888 ;
889 [label="gini = 0.0\nsamples = 1\nvalue = [0, 1]"] ;
237 -> 889 ;
890 [label="gini = 0.0\nsamples = 1\nvalue = [0, 1]"] ;
236 -> 890 ;
891 [label="gini = 0.0\nsamples = 1\nvalue = [0, 1]"] ;
235 -> 891 ;
892 [label="gini = 0.0\nsamples = 1\nvalue = [0, 1]"] ;
234 -> 892 ;
893 [label="gini = 0.0\nsamples = 1\nvalue = [0, 1]"] ;
233 -> 893 ;
894 [label="gini = 0.0\nsamples = 1\nvalue = [0, 1]"] ;
232 -> 894 ;
895 [label="gini = 0.0\nsamples = 1\nvalue = [0, 1]"] ;
231 -> 895 ;
896 [label="gini = 0.0\nsamples = 1\nvalue = [0, 1]"] ;
230 -> 896 ;
897 [label="gini = 0.0\nsamples = 1\nvalue = [0, 1]"] ;
229 -> 897 ;
898 [label="gini = 0.0\nsamples = 1\nvalue = [0, 1]"] ;
228 -> 898 ;
899 [label="gini = 0.0\nsamples = 1\nvalue = [0, 1]"] ;
227 -> 899 ;
900 [label="gini = 0.0\nsamples = 1\nvalue = [0, 1]"] ;
226 -> 900 ;
901 [label="gini = 0.0\nsamples = 1\nvalue = [0, 1]"] ;
225 -> 901 ;
902 [label="gini = 0.0\nsamples = 1\nvalue = [0, 1]"] ;
224 -> 902 ;
903 [label="gini = 0.0\nsamples = 1\nvalue = [0, 1]"] ;
223 -> 903 ;
904 [label="gini = 0.0\nsamples = 1\nvalue = [0, 1]"] ;
222 -> 904 ;
905 [label="gini = 0.0\nsamples = 1\nvalue = [0, 1]"] ;
221 -> 905 ;
906 [label="gini = 0.0\nsamples = 1\nvalue = [0, 1]"] ;
220 -> 906 ;
907 [label="gini = 0.0\nsamples = 1\nvalue = [0, 1]"] ;
219 -> 907 ;
908 [label="gini = 0.0\nsamples = 1\nvalue = [0, 1]"] ;
218 -> 908 ;
909 [label="gini = 0.0\nsamples = 1\nvalue = [0, 1]"] ;
217 -> 909 ;
910 [label="gini = 0.0\nsamples = 1\nvalue = [0, 1]"] ;
216 -> 910 ;
911 [label="gini = 0.0\nsamples = 1\nvalue = [0, 1]"] ;
215 -> 911 ;
912 [label="gini = 0.0\nsamples = 1\nvalue = [0, 1]"] ;
214 -> 912 ;
913 [label="gini = 0.0\nsamples = 1\nvalue = [0, 1]"] ;
213 -> 913 ;
914 [label="gini = 0.0\nsamples = 1\nvalue = [0, 1]"] ;
212 -> 914 ;
915 [label="gini = 0.0\nsamples = 1\nvalue = [0, 1]"] ;
211 -> 915 ;
916 [label="gini = 0.0\nsamples = 1\nvalue = [0, 1]"] ;
210 -> 916 ;
917 [label="gini = 0.0\nsamples = 1\nvalue = [0, 1]"] ;
209 -> 917 ;
918 [label="gini = 0.0\nsamples = 1\nvalue = [0, 1]"] ;
208 -> 918 ;
919 [label="gini = 0.0\nsamples = 1\nvalue = [0, 1]"] ;
207 -> 919 ;
920 [label="gini = 0.0\nsamples = 1\nvalue = [0, 1]"] ;
206 -> 920 ;
921 [label="gini = 0.0\nsamples = 1\nvalue = [0, 1]"] ;
205 -> 921 ;
922 [label="gini = 0.0\nsamples = 1\nvalue = [0, 1]"] ;
204 -> 922 ;
923 [label="gini = 0.0\nsamples = 1\nvalue = [0, 1]"] ;
203 -> 923 ;
924 [label="gini = 0.0\nsamples = 1\nvalue = [0, 1]"] ;
202 -> 924 ;
925 [label="gini = 0.0\nsamples = 1\nvalue = [0, 1]"] ;
201 -> 925 ;
926 [label="gini = 0.0\nsamples = 1\nvalue = [0, 1]"] ;
200 -> 926 ;
927 [label="gini = 0.0\nsamples = 1\nvalue = [0, 1]"] ;
199 -> 927 ;
928 [label="gini = 0.0\nsamples = 1\nvalue = [0, 1]"] ;
198 -> 928 ;
929 [label="gini = 0.0\nsamples = 1\nvalue = [0, 1]"] ;
197 -> 929 ;
930 [label="gini = 0.0\nsamples = 1\nvalue = [0, 1]"] ;
196 -> 930 ;
931 [label="gini = 0.0\nsamples = 1\nvalue = [0, 1]"] ;
195 -> 931 ;
932 [label="gini = 0.0\nsamples = 1\nvalue = [0, 1]"] ;
194 -> 932 ;
933 [label="gini = 0.0\nsamples = 1\nvalue = [0, 1]"] ;
193 -> 933 ;
934 [label="gini = 0.0\nsamples = 1\nvalue = [0, 1]"] ;
192 -> 934 ;
935 [label="gini = 0.0\nsamples = 1\nvalue = [0, 1]"] ;
191 -> 935 ;
936 [label="gini = 0.0\nsamples = 1\nvalue = [0, 1]"] ;
190 -> 936 ;
937 [label="gini = 0.0\nsamples = 1\nvalue = [0, 1]"] ;
189 -> 937 ;
938 [label="gini = 0.0\nsamples = 1\nvalue = [0, 1]"] ;
188 -> 938 ;
939 [label="gini = 0.0\nsamples = 1\nvalue = [0, 1]"] ;
187 -> 939 ;
940 [label="gini = 0.0\nsamples = 1\nvalue = [0, 1]"] ;
186 -> 940 ;
941 [label="gini = 0.0\nsamples = 1\nvalue = [0, 1]"] ;
185 -> 941 ;
942 [label="gini = 0.0\nsamples = 1\nvalue = [0, 1]"] ;
184 -> 942 ;
943 [label="gini = 0.0\nsamples = 1\nvalue = [0, 1]"] ;
183 -> 943 ;
944 [label="gini = 0.0\nsamples = 1\nvalue = [0, 1]"] ;
182 -> 944 ;
945 [label="gini = 0.0\nsamples = 1\nvalue = [0, 1]"] ;
181 -> 945 ;
946 [label="gini = 0.0\nsamples = 1\nvalue = [0, 1]"] ;
180 -> 946 ;
947 [label="gini = 0.0\nsamples = 1\nvalue = [0, 1]"] ;
179 -> 947 ;
948 [label="gini = 0.0\nsamples = 1\nvalue = [0, 1]"] ;
178 -> 948 ;
949 [label="gini = 0.0\nsamples = 1\nvalue = [0, 1]"] ;
177 -> 949 ;
950 [label="gini = 0.0\nsamples = 1\nvalue = [0, 1]"] ;
176 -> 950 ;
951 [label="gini = 0.0\nsamples = 1\nvalue = [0, 1]"] ;
175 -> 951 ;
952 [label="gini = 0.0\nsamples = 1\nvalue = [0, 1]"] ;
174 -> 952 ;
953 [label="gini = 0.0\nsamples = 1\nvalue = [0, 1]"] ;
173 -> 953 ;
954 [label="gini = 0.484\nsamples = 17\nvalue = [7, 10]"] ;
172 -> 954 ;
955 [label="gini = 0.32\nsamples = 5\nvalue = [4, 1]"] ;
171 -> 955 ;
956 [label="gini = 0.32\nsamples = 5\nvalue = [4, 1]"] ;
170 -> 956 ;
957 [label="gini = 0.32\nsamples = 5\nvalue = [4, 1]"] ;
169 -> 957 ;
958 [label="gini = 0.484\nsamples = 185\nvalue = [109, 76]"] ;
168 -> 958 ;
959 [label="gini = 0.375\nsamples = 8\nvalue = [6, 2]"] ;
167 -> 959 ;
960 [label="gini = 0.375\nsamples = 4\nvalue = [1, 3]"] ;
166 -> 960 ;
961 [label="gini = 0.375\nsamples = 4\nvalue = [1, 3]"] ;
165 -> 961 ;
962 [label="gini = 0.375\nsamples = 4\nvalue = [1, 3]"] ;
164 -> 962 ;
963 [label="gini = 0.375\nsamples = 4\nvalue = [1, 3]"] ;
163 -> 963 ;
964 [label="gini = 0.375\nsamples = 4\nvalue = [1, 3]"] ;
162 -> 964 ;
965 [label="gini = 0.375\nsamples = 4\nvalue = [1, 3]"] ;
161 -> 965 ;
966 [label="gini = 0.375\nsamples = 4\nvalue = [1, 3]"] ;
160 -> 966 ;
967 [label="gini = 0.375\nsamples = 4\nvalue = [1, 3]"] ;
159 -> 967 ;
968 [label="gini = 0.444\nsamples = 27\nvalue = [18, 9]"] ;
158 -> 968 ;
969 [label="gini = 0.0\nsamples = 2\nvalue = [2, 0]"] ;
157 -> 969 ;
970 [label="gini = 0.476\nsamples = 110\nvalue = [67, 43]"] ;
156 -> 970 ;
971 [label="gini = 0.0\nsamples = 2\nvalue = [2, 0]"] ;
155 -> 971 ;
972 [label="gini = 0.0\nsamples = 2\nvalue = [2, 0]"] ;
154 -> 972 ;
973 [label="gini = 0.472\nsamples = 84\nvalue = [52, 32]"] ;
153 -> 973 ;
974 [label="gini = 0.0\nsamples = 2\nvalue = [2, 0]"] ;
152 -> 974 ;
975 [label="gini = 0.0\nsamples = 2\nvalue = [2, 0]"] ;
151 -> 975 ;
976 [label="gini = 0.0\nsamples = 2\nvalue = [2, 0]"] ;
150 -> 976 ;
977 [label="gini = 0.0\nsamples = 2\nvalue = [2, 0]"] ;
149 -> 977 ;
978 [label="gini = 0.0\nsamples = 2\nvalue = [2, 0]"] ;
148 -> 978 ;
979 [label="gini = 0.0\nsamples = 2\nvalue = [2, 0]"] ;
147 -> 979 ;
980 [label="gini = 0.0\nsamples = 2\nvalue = [2, 0]"] ;
146 -> 980 ;
981 [label="gini = 0.0\nsamples = 2\nvalue = [2, 0]"] ;
145 -> 981 ;
982 [label="gini = 0.0\nsamples = 2\nvalue = [2, 0]"] ;
144 -> 982 ;
983 [label="gini = 0.0\nsamples = 2\nvalue = [2, 0]"] ;
143 -> 983 ;
984 [label="gini = 0.0\nsamples = 2\nvalue = [2, 0]"] ;
142 -> 984 ;
985 [label="gini = 0.0\nsamples = 2\nvalue = [2, 0]"] ;
141 -> 985 ;
986 [label="gini = 0.0\nsamples = 2\nvalue = [2, 0]"] ;
140 -> 986 ;
987 [label="gini = 0.415\nsamples = 17\nvalue = [12, 5]"] ;
139 -> 987 ;
988 [label="gini = 0.467\nsamples = 70\nvalue = [44, 26]"] ;
138 -> 988 ;
989 [label="gini = 0.0\nsamples = 2\nvalue = [2, 0]"] ;
137 -> 989 ;
990 [label="gini = 0.0\nsamples = 2\nvalue = [2, 0]"] ;
136 -> 990 ;
991 [label="gini = 0.0\nsamples = 2\nvalue = [2, 0]"] ;
135 -> 991 ;
992 [label="gini = 0.0\nsamples = 2\nvalue = [2, 0]"] ;
134 -> 992 ;
993 [label="gini = 0.0\nsamples = 2\nvalue = [2, 0]"] ;
133 -> 993 ;
994 [label="gini = 0.0\nsamples = 2\nvalue = [2, 0]"] ;
132 -> 994 ;
995 [label="gini = 0.0\nsamples = 2\nvalue = [2, 0]"] ;
131 -> 995 ;
996 [label="gini = 0.0\nsamples = 2\nvalue = [2, 0]"] ;
130 -> 996 ;
997 [label="gini = 0.0\nsamples = 2\nvalue = [2, 0]"] ;
129 -> 997 ;
998 [label="gini = 0.492\nsamples = 32\nvalue = [14, 18]"] ;
128 -> 998 ;
999 [label="gini = 0.491\nsamples = 30\nvalue = [13, 17]"] ;
127 -> 999 ;
1000 [label="gini = 0.49\nsamples = 28\nvalue = [12, 16]"] ;
126 -> 1000 ;
1001 [label="gini = 0.444\nsamples = 9\nvalue = [3, 6]"] ;
125 -> 1001 ;
1002 [label="gini = 0.444\nsamples = 9\nvalue = [3, 6]"] ;
124 -> 1002 ;
1003 [label="gini = 0.278\nsamples = 6\nvalue = [5, 1]"] ;
123 -> 1003 ;
1004 [label="gini = 0.278\nsamples = 6\nvalue = [5, 1]"] ;
122 -> 1004 ;
1005 [label="gini = 0.408\nsamples = 7\nvalue = [2, 5]"] ;
121 -> 1005 ;
1006 [label="gini = 0.408\nsamples = 7\nvalue = [2, 5]"] ;
120 -> 1006 ;
1007 [label="gini = 0.408\nsamples = 7\nvalue = [2, 5]"] ;
119 -> 1007 ;
1008 [label="gini = 0.444\nsamples = 39\nvalue = [26, 13]"] ;
118 -> 1008 ;
1009 [label="gini = 0.401\nsamples = 18\nvalue = [13, 5]"] ;
117 -> 1009 ;
1010 [label="gini = 0.464\nsamples = 93\nvalue = [59, 34]"] ;
116 -> 1010 ;
1011 [label="gini = 0.487\nsamples = 1267\nvalue = [734, 533]"] ;
115 -> 1011 ;
1012 [label="gini = 0.479\nsamples = 311\nvalue = [187, 124]"] ;
114 -> 1012 ;
1013 [label="gini = 0.484\nsamples = 681\nvalue = [402, 279]"] ;
113 -> 1013 ;
1014 [label="gini = 0.355\nsamples = 13\nvalue = [10, 3]"] ;
112 -> 1014 ;
1015 [label="gini = 0.0\nsamples = 3\nvalue = [3, 0]"] ;
111 -> 1015 ;
1016 [label="gini = 0.0\nsamples = 3\nvalue = [3, 0]"] ;
110 -> 1016 ;
1017 [label="gini = 0.0\nsamples = 3\nvalue = [3, 0]"] ;
109 -> 1017 ;
1018 [label="gini = 0.0\nsamples = 3\nvalue = [3, 0]"] ;
108 -> 1018 ;
1019 [label="gini = 0.0\nsamples = 3\nvalue = [3, 0]"] ;
107 -> 1019 ;
1020 [label="gini = 0.0\nsamples = 3\nvalue = [3, 0]"] ;
106 -> 1020 ;
1021 [label="gini = 0.0\nsamples = 3\nvalue = [3, 0]"] ;
105 -> 1021 ;
1022 [label="gini = 0.397\nsamples = 22\nvalue = [16, 6]"] ;
104 -> 1022 ;
1023 [label="gini = 0.245\nsamples = 7\nvalue = [6, 1]"] ;
103 -> 1023 ;
1024 [label="gini = 0.0\nsamples = 2\nvalue = [0, 2]"] ;
102 -> 1024 ;
1025 [label="gini = 0.0\nsamples = 2\nvalue = [0, 2]"] ;
101 -> 1025 ;
1026 [label="gini = 0.0\nsamples = 2\nvalue = [0, 2]"] ;
100 -> 1026 ;
1027 [label="gini = 0.0\nsamples = 2\nvalue = [0, 2]"] ;
99 -> 1027 ;
1028 [label="gini = 0.0\nsamples = 2\nvalue = [0, 2]"] ;
98 -> 1028 ;
1029 [label="gini = 0.0\nsamples = 2\nvalue = [0, 2]"] ;
97 -> 1029 ;
1030 [label="gini = 0.0\nsamples = 2\nvalue = [0, 2]"] ;
96 -> 1030 ;
1031 [label="gini = 0.0\nsamples = 2\nvalue = [0, 2]"] ;
95 -> 1031 ;
1032 [label="gini = 0.0\nsamples = 2\nvalue = [0, 2]"] ;
94 -> 1032 ;
1033 [label="gini = 0.0\nsamples = 2\nvalue = [0, 2]"] ;
93 -> 1033 ;
1034 [label="gini = 0.0\nsamples = 2\nvalue = [0, 2]"] ;
92 -> 1034 ;
1035 [label="gini = 0.0\nsamples = 2\nvalue = [0, 2]"] ;
91 -> 1035 ;
1036 [label="gini = 0.0\nsamples = 2\nvalue = [0, 2]"] ;
90 -> 1036 ;
1037 [label="gini = 0.0\nsamples = 2\nvalue = [0, 2]"] ;
89 -> 1037 ;
1038 [label="gini = 0.0\nsamples = 2\nvalue = [0, 2]"] ;
88 -> 1038 ;
1039 [label="gini = 0.0\nsamples = 2\nvalue = [0, 2]"] ;
87 -> 1039 ;
1040 [label="gini = 0.0\nsamples = 2\nvalue = [0, 2]"] ;
86 -> 1040 ;
1041 [label="gini = 0.0\nsamples = 2\nvalue = [0, 2]"] ;
85 -> 1041 ;
1042 [label="gini = 0.0\nsamples = 2\nvalue = [0, 2]"] ;
84 -> 1042 ;
1043 [label="gini = 0.0\nsamples = 2\nvalue = [0, 2]"] ;
83 -> 1043 ;
1044 [label="gini = 0.408\nsamples = 28\nvalue = [20, 8]"] ;
82 -> 1044 ;
1045 [label="gini = 0.298\nsamples = 11\nvalue = [9, 2]"] ;
81 -> 1045 ;
1046 [label="gini = 0.486\nsamples = 2544\nvalue = [1484, 1060]"] ;
80 -> 1046 ;
1047 [label="gini = 0.461\nsamples = 139\nvalue = [89, 50]"] ;
79 -> 1047 ;
1048 [label="gini = 0.474\nsamples = 376\nvalue = [231, 145]"] ;
78 -> 1048 ;
1049 [label="gini = 0.482\nsamples = 1181\nvalue = [704, 477]"] ;
77 -> 1049 ;
1050 [label="gini = 0.48\nsamples = 996\nvalue = [597, 399]"] ;
76 -> 1050 ;
1051 [label="gini = 0.432\nsamples = 57\nvalue = [39, 18]"] ;
75 -> 1051 ;
1052 [label="gini = 0.461\nsamples = 169\nvalue = [108, 61]"] ;
74 -> 1052 ;
1053 [label="gini = 0.411\nsamples = 38\nvalue = [27, 11]"] ;
73 -> 1053 ;
1054 [label="gini = 0.444\nsamples = 12\nvalue = [4, 8]"] ;
72 -> 1054 ;
1055 [label="gini = 0.32\nsamples = 5\nvalue = [1, 4]"] ;
71 -> 1055 ;
1056 [label="gini = 0.32\nsamples = 5\nvalue = [1, 4]"] ;
70 -> 1056 ;
1057 [label="gini = 0.32\nsamples = 5\nvalue = [1, 4]"] ;
69 -> 1057 ;
1058 [label="gini = 0.0\nsamples = 4\nvalue = [4, 0]"] ;
68 -> 1058 ;
1059 [label="gini = 0.0\nsamples = 4\nvalue = [4, 0]"] ;
67 -> 1059 ;
1060 [label="gini = 0.42\nsamples = 10\nvalue = [3, 7]"] ;
66 -> 1060 ;
1061 [label="gini = 0.42\nsamples = 10\nvalue = [3, 7]"] ;
65 -> 1061 ;
1062 [label="gini = 0.493\nsamples = 41\nvalue = [18, 23]"] ;
64 -> 1062 ;
1063 [label="gini = 0.278\nsamples = 12\nvalue = [10, 2]"] ;
63 -> 1063 ;
1064 [label="gini = 0.375\nsamples = 8\nvalue = [2, 6]"] ;
62 -> 1064 ;
1065 [label="gini = 0.375\nsamples = 8\nvalue = [2, 6]"] ;
61 -> 1065 ;
1066 [label="gini = 0.444\nsamples = 15\nvalue = [5, 10]"] ;
60 -> 1066 ;
1067 [label="gini = 0.444\nsamples = 15\nvalue = [5, 10]"] ;
59 -> 1067 ;
1068 [label="gini = 0.489\nsamples = 40\nvalue = [17, 23]"] ;
58 -> 1068 ;
1069 [label="gini = 0.491\nsamples = 44\nvalue = [19, 25]"] ;
57 -> 1069 ;
1070 [label="gini = 0.0\nsamples = 5\nvalue = [5, 0]"] ;
56 -> 1070 ;
1071 [label="gini = 0.0\nsamples = 5\nvalue = [5, 0]"] ;
55 -> 1071 ;
1072 [label="gini = 0.446\nsamples = 113\nvalue = [75, 38]"] ;
54 -> 1072 ;
1073 [label="gini = 0.26\nsamples = 13\nvalue = [11, 2]"] ;
53 -> 1073 ;
1074 [label="gini = 0.0\nsamples = 3\nvalue = [0, 3]"] ;
52 -> 1074 ;
1075 [label="gini = 0.0\nsamples = 3\nvalue = [0, 3]"] ;
51 -> 1075 ;
1076 [label="gini = 0.0\nsamples = 3\nvalue = [0, 3]"] ;
50 -> 1076 ;
1077 [label="gini = 0.0\nsamples = 3\nvalue = [0, 3]"] ;
49 -> 1077 ;
1078 [label="gini = 0.278\nsamples = 6\nvalue = [1, 5]"] ;
48 -> 1078 ;
1079 [label="gini = 0.43\nsamples = 16\nvalue = [5, 11]"] ;
47 -> 1079 ;
1080 [label="gini = 0.466\nsamples = 27\nvalue = [10, 17]"] ;
46 -> 1080 ;
1081 [label="gini = 0.375\nsamples = 36\nvalue = [27, 9]"] ;
45 -> 1081 ;
1082 [label="gini = 0.432\nsamples = 95\nvalue = [65, 30]"] ;
44 -> 1082 ;
1083 [label="gini = 0.408\nsamples = 14\nvalue = [4, 10]"] ;
43 -> 1083 ;
1084 [label="gini = 0.454\nsamples = 23\nvalue = [8, 15]"] ;
42 -> 1084 ;
1085 [label="gini = 0.328\nsamples = 29\nvalue = [23, 6]"] ;
41 -> 1085 ;
1086 [label="gini = 0.32\nsamples = 10\nvalue = [2, 8]"] ;
40 -> 1086 ;
1087 [label="gini = 0.391\nsamples = 15\nvalue = [4, 11]"] ;
39 -> 1087 ;
1088 [label="gini = 0.499\nsamples = 603\nvalue = [316, 287]"] ;
38 -> 1088 ;
1089 [label="gini = 0.498\nsamples = 882\nvalue = [467, 415]"] ;
37 -> 1089 ;
1090 [label="gini = 0.48\nsamples = 55\nvalue = [22, 33]"] ;
36 -> 1090 ;
1091 [label="gini = 0.219\nsamples = 8\nvalue = [1, 7]"] ;
35 -> 1091 ;
1092 [label="gini = 0.451\nsamples = 32\nvalue = [11, 21]"] ;
34 -> 1092 ;
1093 [label="gini = 0.0\nsamples = 5\nvalue = [0, 5]"] ;
33 -> 1093 ;
1094 [label="gini = 0.375\nsamples = 16\nvalue = [4, 12]"] ;
32 -> 1094 ;
1095 [label="gini = 0.498\nsamples = 1531\nvalue = [817, 714]"] ;
31 -> 1095 ;
1096 [label="gini = 0.5\nsamples = 448\nvalue = [226, 222]"] ;
30 -> 1096 ;
1097 [label="gini = 0.0\nsamples = 5\nvalue = [0, 5]"] ;
29 -> 1097 ;
1098 [label="gini = 0.298\nsamples = 11\nvalue = [2, 9]"] ;
28 -> 1098 ;
1099 [label="gini = 0.142\nsamples = 13\nvalue = [12, 1]"] ;
27 -> 1099 ;
1100 [label="gini = 0.0\nsamples = 6\nvalue = [0, 6]"] ;
26 -> 1100 ;
1101 [label="gini = 0.439\nsamples = 181\nvalue = [122, 59]"] ;
25 -> 1101 ;
1102 [label="gini = 0.468\nsamples = 571\nvalue = [358, 213]"] ;
24 -> 1102 ;
1103 [label="gini = 0.441\nsamples = 195\nvalue = [131, 64]"] ;
23 -> 1103 ;
1104 [label="gini = 0.18\nsamples = 10\nvalue = [1, 9]"] ;
22 -> 1104 ;
1105 [label="gini = 0.419\nsamples = 124\nvalue = [87, 37]"] ;
21 -> 1105 ;
1106 [label="gini = 0.444\nsamples = 42\nvalue = [14, 28]"] ;
20 -> 1106 ;
1107 [label="gini = 0.245\nsamples = 14\nvalue = [2, 12]"] ;
19 -> 1107 ;
1108 [label="gini = 0.5\nsamples = 550\nvalue = [274, 276]"] ;
18 -> 1108 ;
1109 [label="gini = 0.0\nsamples = 8\nvalue = [0, 8]"] ;
17 -> 1109 ;
1110 [label="gini = 0.5\nsamples = 578\nvalue = [287, 291]"] ;
16 -> 1110 ;
1111 [label="gini = 0.44\nsamples = 52\nvalue = [17, 35]"] ;
15 -> 1111 ;
1112 [label="gini = 0.5\nsamples = 1030\nvalue = [523, 507]"] ;
14 -> 1112 ;
1113 [label="gini = 0.346\nsamples = 63\nvalue = [49, 14]"] ;
13 -> 1113 ;
1114 [label="gini = 0.498\nsamples = 469\nvalue = [218, 251]"] ;
12 -> 1114 ;
1115 [label="gini = 0.5\nsamples = 969\nvalue = [473, 496]"] ;
11 -> 1115 ;
1116 [label="gini = 0.5\nsamples = 1145\nvalue = [563, 582]"] ;
10 -> 1116 ;
1117 [label="gini = 0.485\nsamples = 230\nvalue = [95, 135]"] ;
9 -> 1117 ;
1118 [label="gini = 0.381\nsamples = 129\nvalue = [96, 33]"] ;
8 -> 1118 ;
1119 [label="gini = 0.348\nsamples = 98\nvalue = [76, 22]"] ;
7 -> 1119 ;
1120 [label="gini = 0.421\nsamples = 319\nvalue = [223, 96]"] ;
6 -> 1120 ;
1121 [label="gini = 0.473\nsamples = 2135\nvalue = [1317, 818]"] ;
5 -> 1121 ;
1122 [label="gini = 0.44\nsamples = 1657\nvalue = [1115, 542]"] ;
4 -> 1122 ;
1123 [label="gini = 0.443\nsamples = 1838\nvalue = [1229, 609]"] ;
3 -> 1123 ;
1124 [label="gini = 0.494\nsamples = 3801\nvalue = [1690, 2111]"] ;
2 -> 1124 ;
1125 [label="gini = 0.489\nsamples = 4067\nvalue = [1727, 2340]"] ;
1 -> 1125 ;
1126 [label="gini = 0.5\nsamples = 761424\nvalue = [379087, 382337]"] ;
0 -> 1126 [labeldistance=2.5, labelangle=-45, headlabel="False"] ;
}